<?xml version="1.0"?>
<opencv_storage>
<cascade>
  <stageType>BOOST</stageType>
  <featureType>HAAR</featureType>
  <height>50</height>
  <width>50</width>
  <stageParams>
    <boostType>GAB</boostType>
    <minHitRate>9.9500000476837158e-01</minHitRate>
    <maxFalseAlarm>5.0000000000000000e-01</maxFalseAlarm>
    <weightTrimRate>9.4999999999999996e-01</weightTrimRate>
    <maxDepth>1</maxDepth>
    <maxWeakCount>100</maxWeakCount></stageParams>
  <featureParams>
    <maxCatCount>0</maxCatCount>
    <featSize>1</featSize>
    <mode>ALL</mode></featureParams>
  <stageNum>18</stageNum>
  <stages>
    <!-- stage 0 -->
    <_>
      <maxWeakCount>12</maxWeakCount>
      <stageThreshold>-7.5454342365264893e-01</stageThreshold>
      <weakClassifiers>
        <_>
          <internalNodes>
            0 -1 565 1.9049731781706214e-03</internalNodes>
          <leafValues>
            -3.2934132218360901e-01 6.4245808124542236e-01</leafValues></_>
        <_>
          <internalNodes>
            0 -1 181 4.2935181409120560e-03</internalNodes>
          <leafValues>
            -1.8418252468109131e-01 6.1100089550018311e-01</leafValues></_>
        <_>
          <internalNodes>
            0 -1 86 -2.0580705255270004e-02</internalNodes>
          <leafValues>
            5.1613807678222656e-01 -2.5376933813095093e-01</leafValues></_>
        <_>
          <internalNodes>
            0 -1 433 4.1656922549009323e-03</internalNodes>
          <leafValues>
            -3.0979624390602112e-01 4.9311268329620361e-01</leafValues></_>
        <_>
          <internalNodes>
            0 -1 80 -3.2882668077945709e-02</internalNodes>
          <leafValues>
            4.5127922296524048e-01 -2.5389406085014343e-01</leafValues></_>
        <_>
          <internalNodes>
            0 -1 258 1.0266134515404701e-02</internalNodes>
          <leafValues>
            1.9900955259799957e-01 -6.0881924629211426e-01</leafValues></_>
        <_>
          <internalNodes>
            0 -1 744 1.4952511992305517e-04</internalNodes>
          <leafValues>
            -2.5000911951065063e-01 5.1735806465148926e-01</leafValues></_>
        <_>
          <internalNodes>
            0 -1 377 4.9334787763655186e-04</internalNodes>
          <leafValues>
            -2.2728855907917023e-01 4.8224413394927979e-01</leafValues></_>
        <_>
          <internalNodes>
            0 -1 575 2.6159988716244698e-02</internalNodes>
          <leafValues>
            1.8332728743553162e-01 -7.0592796802520752e-01</leafValues></_>
        <_>
          <internalNodes>
            0 -1 498 1.5605596126988530e-03</internalNodes>
          <leafValues>
            -2.2596579790115356e-01 5.2241373062133789e-01</leafValues></_>
        <_>
          <internalNodes>
            0 -1 503 2.2580148652195930e-04</internalNodes>
          <leafValues>
            -1.8313515186309814e-01 5.1479959487915039e-01</leafValues></_>
        <_>
          <internalNodes>
            0 -1 293 3.2859153579920530e-03</internalNodes>
          <leafValues>
            -2.5711625814437866e-01 3.8256716728210449e-01</leafValues></_></weakClassifiers></_>
    <!-- stage 1 -->
    <_>
      <maxWeakCount>23</maxWeakCount>
      <stageThreshold>-8.9310610294342041e-01</stageThreshold>
      <weakClassifiers>
        <_>
          <internalNodes>
            0 -1 621 2.8028778615407646e-04</internalNodes>
          <leafValues>
            -2.0137104392051697e-01 4.8616212606430054e-01</leafValues></_>
        <_>
          <internalNodes>
            0 -1 16 1.3805598020553589e-02</internalNodes>
          <leafValues>
            -1.2208319455385208e-01 5.1128059625625610e-01</leafValues></_>
        <_>
          <internalNodes>
            0 -1 183 5.0365170463919640e-03</internalNodes>
          <leafValues>
            -1.4818489551544189e-01 4.6349051594734192e-01</leafValues></_>
        <_>
          <internalNodes>
            0 -1 84 -4.7325283288955688e-02</internalNodes>
          <leafValues>
            3.9149597287178040e-01 -2.1589635312557220e-01</leafValues></_>
        <_>
          <internalNodes>
            0 -1 880 3.1917624175548553e-02</internalNodes>
          <leafValues>
            -1.4792937040328979e-01 5.6324845552444458e-01</leafValues></_>
        <_>
          <internalNodes>
            0 -1 885 -1.7614603042602539e-02</internalNodes>
          <leafValues>
            6.4499157667160034e-01 -1.3607390224933624e-01</leafValues></_>
        <_>
          <internalNodes>
            0 -1 849 -4.7477543354034424e-02</internalNodes>
          <leafValues>
            5.5538022518157959e-01 -1.0372437536716461e-01</leafValues></_>
        <_>
          <internalNodes>
            0 -1 504 4.3117598397657275e-04</internalNodes>
          <leafValues>
            -1.6964116692543030e-01 4.3446743488311768e-01</leafValues></_>
        <_>
          <internalNodes>
            0 -1 444 1.0312026366591454e-02</internalNodes>
          <leafValues>
            9.6468530595302582e-02 -7.1331858634948730e-01</leafValues></_>
        <_>
          <internalNodes>
            0 -1 231 1.0869272984564304e-02</internalNodes>
          <leafValues>
            -1.5553158521652222e-01 4.2284792661666870e-01</leafValues></_>
        <_>
          <internalNodes>
            0 -1 167 5.2314192056655884e-02</internalNodes>
          <leafValues>
            -1.1937467008829117e-01 4.6225449442863464e-01</leafValues></_>
        <_>
          <internalNodes>
            0 -1 371 1.2576939538121223e-02</internalNodes>
          <leafValues>
            8.6607150733470917e-02 -6.5467774868011475e-01</leafValues></_>
        <_>
          <internalNodes>
            0 -1 791 1.5571240335702896e-02</internalNodes>
          <leafValues>
            -1.2494654208421707e-01 4.6905165910720825e-01</leafValues></_>
        <_>
          <internalNodes>
            0 -1 13 8.6521893739700317e-02</internalNodes>
          <leafValues>
            -1.2768688797950745e-01 4.5707988739013672e-01</leafValues></_>
        <_>
          <internalNodes>
            0 -1 383 -5.7475129142403603e-04</internalNodes>
          <leafValues>
            2.6350292563438416e-01 -1.8401002883911133e-01</leafValues></_>
        <_>
          <internalNodes>
            0 -1 551 3.3439503749832511e-04</internalNodes>
          <leafValues>
            -1.5370698273181915e-01 4.4491896033287048e-01</leafValues></_>
        <_>
          <internalNodes>
            0 -1 610 -6.8741163704544306e-04</internalNodes>
          <leafValues>
            -7.6130950450897217e-01 8.4856458008289337e-02</leafValues></_>
        <_>
          <internalNodes>
            0 -1 514 -9.9995522759854794e-04</internalNodes>
          <leafValues>
            -7.3126548528671265e-01 7.4708834290504456e-02</leafValues></_>
        <_>
          <internalNodes>
            0 -1 550 -1.0083883535116911e-03</internalNodes>
          <leafValues>
            2.2319866716861725e-01 -2.3489326238632202e-01</leafValues></_>
        <_>
          <internalNodes>
            0 -1 275 -1.8824968487024307e-02</internalNodes>
          <leafValues>
            -8.0464661121368408e-01 7.0929840207099915e-02</leafValues></_>
        <_>
          <internalNodes>
            0 -1 810 -2.4470016360282898e-02</internalNodes>
          <leafValues>
            4.2408406734466553e-01 -1.2969112396240234e-01</leafValues></_>
        <_>
          <internalNodes>
            0 -1 895 -1.8351174890995026e-02</internalNodes>
          <leafValues>
            7.7325206995010376e-01 -5.8678664267063141e-02</leafValues></_>
        <_>
          <internalNodes>
            0 -1 367 -7.4492722749710083e-02</internalNodes>
          <leafValues>
            4.4339618086814880e-01 -1.1002806574106216e-01</leafValues></_></weakClassifiers></_>
    <!-- stage 2 -->
    <_>
      <maxWeakCount>29</maxWeakCount>
      <stageThreshold>-8.8705682754516602e-01</stageThreshold>
      <weakClassifiers>
        <_>
          <internalNodes>
            0 -1 228 3.4907185472548008e-03</internalNodes>
          <leafValues>
            1.7038260400295258e-01 6.9944339990615845e-01</leafValues></_>
        <_>
          <internalNodes>
            0 -1 136 2.4306325241923332e-02</internalNodes>
          <leafValues>
            -1.2819229066371918e-01 4.6956571936607361e-01</leafValues></_>
        <_>
          <internalNodes>
            0 -1 208 2.0397748798131943e-02</internalNodes>
          <leafValues>
            -1.2826371192932129e-01 5.0958508253097534e-01</leafValues></_>
        <_>
          <internalNodes>
            0 -1 268 -1.8518064171075821e-03</internalNodes>
          <leafValues>
            3.5049462318420410e-01 -2.1085353195667267e-01</leafValues></_>
        <_>
          <internalNodes>
            0 -1 619 -1.7683757469058037e-02</internalNodes>
          <leafValues>
            -5.1682764291763306e-01 1.4266598224639893e-01</leafValues></_>
        <_>
          <internalNodes>
            0 -1 668 -7.5714604463428259e-04</internalNodes>
          <leafValues>
            2.0334731042385101e-01 -2.6086694002151489e-01</leafValues></_>
        <_>
          <internalNodes>
            0 -1 609 7.6490466017276049e-04</internalNodes>
          <leafValues>
            7.3674291372299194e-02 -7.5476235151290894e-01</leafValues></_>
        <_>
          <internalNodes>
            0 -1 460 4.5969628263264894e-04</internalNodes>
          <leafValues>
            9.1814592480659485e-02 -4.9954712390899658e-01</leafValues></_>
        <_>
          <internalNodes>
            0 -1 881 -1.5148927457630634e-02</internalNodes>
          <leafValues>
            4.5632982254028320e-01 -1.0732128471136093e-01</leafValues></_>
        <_>
          <internalNodes>
            0 -1 886 1.4741159975528717e-02</internalNodes>
          <leafValues>
            -9.8079212009906769e-02 4.9244064092636108e-01</leafValues></_>
        <_>
          <internalNodes>
            0 -1 358 -7.9101726412773132e-02</internalNodes>
          <leafValues>
            5.7413393259048462e-01 -8.0637142062187195e-02</leafValues></_>
        <_>
          <internalNodes>
            0 -1 331 9.5777353271842003e-03</internalNodes>
          <leafValues>
            8.1608437001705170e-02 -7.2326576709747314e-01</leafValues></_>
        <_>
          <internalNodes>
            0 -1 378 3.3749226713553071e-04</internalNodes>
          <leafValues>
            -1.5498590469360352e-01 3.3856159448623657e-01</leafValues></_>
        <_>
          <internalNodes>
            0 -1 342 -8.0544775119051337e-04</internalNodes>
          <leafValues>
            3.0701813101768494e-01 -1.9138908386230469e-01</leafValues></_>
        <_>
          <internalNodes>
            0 -1 521 5.4179519414901733e-02</internalNodes>
          <leafValues>
            9.6797943115234375e-02 -6.6109383106231689e-01</leafValues></_>
        <_>
          <internalNodes>
            0 -1 536 2.4337437935173512e-03</internalNodes>
          <leafValues>
            -1.9078098237514496e-01 2.9291084408760071e-01</leafValues></_>
        <_>
          <internalNodes>
            0 -1 515 -1.7240524757653475e-03</internalNodes>
          <leafValues>
            -5.7475101947784424e-01 1.0198787599802017e-01</leafValues></_>
        <_>
          <internalNodes>
            0 -1 467 -1.2185336090624332e-03</internalNodes>
          <leafValues>
            -7.5923770666122437e-01 6.5198041498661041e-02</leafValues></_>
        <_>
          <internalNodes>
            0 -1 15 1.0801567696034908e-02</internalNodes>
          <leafValues>
            -1.2100222706794739e-01 4.6289768815040588e-01</leafValues></_>
        <_>
          <internalNodes>
            0 -1 421 3.4484313800930977e-03</internalNodes>
          <leafValues>
            -1.9966243207454681e-01 2.5987187027931213e-01</leafValues></_>
        <_>
          <internalNodes>
            0 -1 542 1.2246433179825544e-03</internalNodes>
          <leafValues>
            -1.2515325844287872e-01 3.5406380891799927e-01</leafValues></_>
        <_>
          <internalNodes>
            0 -1 494 1.4801525685470551e-04</internalNodes>
          <leafValues>
            -2.0657697319984436e-01 2.6541757583618164e-01</leafValues></_>
        <_>
          <internalNodes>
            0 -1 449 -4.0198368951678276e-03</internalNodes>
          <leafValues>
            -7.4948400259017944e-01 7.5473874807357788e-02</leafValues></_>
        <_>
          <internalNodes>
            0 -1 400 -1.9719442352652550e-03</internalNodes>
          <leafValues>
            1.9133757054805756e-01 -2.5415465235710144e-01</leafValues></_>
        <_>
          <internalNodes>
            0 -1 352 -1.7334586009383202e-03</internalNodes>
          <leafValues>
            -4.9750819802284241e-01 1.0732925683259964e-01</leafValues></_>
        <_>
          <internalNodes>
            0 -1 812 -1.2299624504521489e-03</internalNodes>
          <leafValues>
            -6.9212424755096436e-01 5.8226432651281357e-02</leafValues></_>
        <_>
          <internalNodes>
            0 -1 551 3.7050756509415805e-04</internalNodes>
          <leafValues>
            -1.2074863165616989e-01 3.9513626694679260e-01</leafValues></_>
        <_>
          <internalNodes>
            0 -1 757 4.7944054007530212e-02</internalNodes>
          <leafValues>
            -8.9814104139804840e-02 4.6284189820289612e-01</leafValues></_>
        <_>
          <internalNodes>
            0 -1 126 -8.3305478096008301e-02</internalNodes>
          <leafValues>
            -5.4731190204620361e-01 8.5518293082714081e-02</leafValues></_></weakClassifiers></_>
    <!-- stage 3 -->
    <_>
      <maxWeakCount>36</maxWeakCount>
      <stageThreshold>-9.4197875261306763e-01</stageThreshold>
      <weakClassifiers>
        <_>
          <internalNodes>
            0 -1 353 -8.5848541930317879e-03</internalNodes>
          <leafValues>
            6.5392780303955078e-01 1.5389186143875122e-01</leafValues></_>
        <_>
          <internalNodes>
            0 -1 61 -7.3024123907089233e-02</internalNodes>
          <leafValues>
            5.2774930000305176e-01 -7.9956188797950745e-02</leafValues></_>
        <_>
          <internalNodes>
            0 -1 211 8.5603427141904831e-03</internalNodes>
          <leafValues>
            -1.3575901091098785e-01 4.9553680419921875e-01</leafValues></_>
        <_>
          <internalNodes>
            0 -1 235 -2.5767018087208271e-03</internalNodes>
          <leafValues>
            4.2078509926795959e-01 -1.8142062425613403e-01</leafValues></_>
        <_>
          <internalNodes>
            0 -1 178 3.5080686211585999e-03</internalNodes>
          <leafValues>
            -1.5029497444629669e-01 3.5472321510314941e-01</leafValues></_>
        <_>
          <internalNodes>
            0 -1 385 -1.3921704143285751e-02</internalNodes>
          <leafValues>
            4.2717421054840088e-01 -1.3952746987342834e-01</leafValues></_>
        <_>
          <internalNodes>
            0 -1 410 1.0604389011859894e-02</internalNodes>
          <leafValues>
            -1.3921333849430084e-01 4.0099921822547913e-01</leafValues></_>
        <_>
          <internalNodes>
            0 -1 100 1.4212002046406269e-02</internalNodes>
          <leafValues>
            -9.4261080026626587e-02 5.6745785474777222e-01</leafValues></_>
        <_>
          <internalNodes>
            0 -1 254 1.3092402368783951e-02</internalNodes>
          <leafValues>
            9.9251799285411835e-02 -6.3093006610870361e-01</leafValues></_>
        <_>
          <internalNodes>
            0 -1 481 2.3827888071537018e-02</internalNodes>
          <leafValues>
            1.1123062670230865e-01 -5.9542375802993774e-01</leafValues></_>
        <_>
          <internalNodes>
            0 -1 350 7.5216183904558420e-04</internalNodes>
          <leafValues>
            8.4818318486213684e-02 -5.2682882547378540e-01</leafValues></_>
        <_>
          <internalNodes>
            0 -1 690 -1.8602930009365082e-02</internalNodes>
          <leafValues>
            5.3380298614501953e-01 -1.1192956566810608e-01</leafValues></_>
        <_>
          <internalNodes>
            0 -1 688 9.3140993267297745e-03</internalNodes>
          <leafValues>
            -2.0780767500400543e-01 2.9510200023651123e-01</leafValues></_>
        <_>
          <internalNodes>
            0 -1 898 1.0497847571969032e-02</internalNodes>
          <leafValues>
            -7.6870046555995941e-02 5.4381901025772095e-01</leafValues></_>
        <_>
          <internalNodes>
            0 -1 807 -1.0419202968478203e-02</internalNodes>
          <leafValues>
            4.4590756297111511e-01 -1.0233053565025330e-01</leafValues></_>
        <_>
          <internalNodes>
            0 -1 32 -4.4485610723495483e-01</internalNodes>
          <leafValues>
            5.5792009830474854e-01 -7.7279306948184967e-02</leafValues></_>
        <_>
          <internalNodes>
            0 -1 180 2.3497570306062698e-02</internalNodes>
          <leafValues>
            6.3038788735866547e-02 -8.4805262088775635e-01</leafValues></_>
        <_>
          <internalNodes>
            0 -1 39 2.6851087808609009e-02</internalNodes>
          <leafValues>
            -1.4541229605674744e-01 3.8328787684440613e-01</leafValues></_>
        <_>
          <internalNodes>
            0 -1 891 -1.1057627387344837e-02</internalNodes>
          <leafValues>
            4.8878011107444763e-01 -7.5353629887104034e-02</leafValues></_>
        <_>
          <internalNodes>
            0 -1 724 -4.9334857612848282e-04</internalNodes>
          <leafValues>
            -5.1127088069915771e-01 8.1822589039802551e-02</leafValues></_>
        <_>
          <internalNodes>
            0 -1 766 4.2054150253534317e-04</internalNodes>
          <leafValues>
            -1.2898689508438110e-01 2.8795903921127319e-01</leafValues></_>
        <_>
          <internalNodes>
            0 -1 735 -2.7623116038739681e-03</internalNodes>
          <leafValues>
            5.2720707654953003e-01 -1.0793552547693253e-01</leafValues></_>
        <_>
          <internalNodes>
            0 -1 824 1.4102184213697910e-03</internalNodes>
          <leafValues>
            7.6368965208530426e-02 -5.7703465223312378e-01</leafValues></_>
        <_>
          <internalNodes>
            0 -1 111 1.7819141969084740e-02</internalNodes>
          <leafValues>
            -1.3052976131439209e-01 3.0025789141654968e-01</leafValues></_>
        <_>
          <internalNodes>
            0 -1 817 -4.7786324284970760e-03</internalNodes>
          <leafValues>
            2.6401841640472412e-01 -1.3895785808563232e-01</leafValues></_>
        <_>
          <internalNodes>
            0 -1 826 -7.0278823841363192e-04</internalNodes>
          <leafValues>
            -4.9236333370208740e-01 8.0709144473075867e-02</leafValues></_>
        <_>
          <internalNodes>
            0 -1 384 -2.6573091745376587e-03</internalNodes>
          <leafValues>
            2.9217535257339478e-01 -1.3297063112258911e-01</leafValues></_>
        <_>
          <internalNodes>
            0 -1 458 -2.5479996111243963e-03</internalNodes>
          <leafValues>
            2.6649111509323120e-01 -1.6688881814479828e-01</leafValues></_>
        <_>
          <internalNodes>
            0 -1 466 -2.6956852525472641e-03</internalNodes>
          <leafValues>
            -6.4946091175079346e-01 6.3109613955020905e-02</leafValues></_>
        <_>
          <internalNodes>
            0 -1 299 -2.5093890726566315e-02</internalNodes>
          <leafValues>
            -7.6182121038436890e-01 3.6006744951009750e-02</leafValues></_>
        <_>
          <internalNodes>
            0 -1 312 -3.7810062058269978e-03</internalNodes>
          <leafValues>
            -6.6422259807586670e-01 4.2348068207502365e-02</leafValues></_>
        <_>
          <internalNodes>
            0 -1 239 3.1164737883955240e-03</internalNodes>
          <leafValues>
            -1.1747132241725922e-01 3.0683121085166931e-01</leafValues></_>
        <_>
          <internalNodes>
            0 -1 271 -1.9652775954455137e-03</internalNodes>
          <leafValues>
            4.3200486898422241e-01 -9.8165914416313171e-02</leafValues></_>
        <_>
          <internalNodes>
            0 -1 424 1.8935624393634498e-04</internalNodes>
          <leafValues>
            1.0314153134822845e-01 -3.7387707829475403e-01</leafValues></_>
        <_>
          <internalNodes>
            0 -1 674 1.9086853717453778e-04</internalNodes>
          <leafValues>
            -1.7483969032764435e-01 2.1961131691932678e-01</leafValues></_>
        <_>
          <internalNodes>
            0 -1 896 3.3568434882909060e-03</internalNodes>
          <leafValues>
            -1.1301869153976440e-01 3.0796322226524353e-01</leafValues></_></weakClassifiers></_>
    <!-- stage 4 -->
    <_>
      <maxWeakCount>38</maxWeakCount>
      <stageThreshold>-8.4584885835647583e-01</stageThreshold>
      <weakClassifiers>
        <_>
          <internalNodes>
            0 -1 72 -1.6264524310827255e-02</internalNodes>
          <leafValues>
            6.1503416299819946e-01 1.9175729155540466e-01</leafValues></_>
        <_>
          <internalNodes>
            0 -1 3 3.3240041136741638e-01</internalNodes>
          <leafValues>
            -8.3506792783737183e-02 5.7232928276062012e-01</leafValues></_>
        <_>
          <internalNodes>
            0 -1 768 -1.2339295353740454e-03</internalNodes>
          <leafValues>
            3.3086606860160828e-01 -1.4232386648654938e-01</leafValues></_>
        <_>
          <internalNodes>
            0 -1 595 -1.2423889711499214e-03</internalNodes>
          <leafValues>
            2.7041772007942200e-01 -2.1022847294807434e-01</leafValues></_>
        <_>
          <internalNodes>
            0 -1 379 -3.4333011135458946e-03</internalNodes>
          <leafValues>
            4.4776302576065063e-01 -1.5255790948867798e-01</leafValues></_>
        <_>
          <internalNodes>
            0 -1 556 5.6997209321707487e-04</internalNodes>
          <leafValues>
            8.9337654411792755e-02 -7.3628675937652588e-01</leafValues></_>
        <_>
          <internalNodes>
            0 -1 702 -1.3212865451350808e-04</internalNodes>
          <leafValues>
            2.1693553030490875e-01 -2.1341028809547424e-01</leafValues></_>
        <_>
          <internalNodes>
            0 -1 340 -9.2409010976552963e-03</internalNodes>
          <leafValues>
            -5.2852231264114380e-01 8.5917010903358459e-02</leafValues></_>
        <_>
          <internalNodes>
            0 -1 118 1.6053535044193268e-02</internalNodes>
          <leafValues>
            -1.3055893778800964e-01 3.1148993968963623e-01</leafValues></_>
        <_>
          <internalNodes>
            0 -1 693 5.5032055824995041e-03</internalNodes>
          <leafValues>
            -3.0119833350181580e-01 1.5928910672664642e-01</leafValues></_>
        <_>
          <internalNodes>
            0 -1 481 1.8203526735305786e-02</internalNodes>
          <leafValues>
            1.1570687592029572e-01 -4.3018248677253723e-01</leafValues></_>
        <_>
          <internalNodes>
            0 -1 520 -5.8652535080909729e-03</internalNodes>
          <leafValues>
            3.0082291364669800e-01 -1.4439509809017181e-01</leafValues></_>
        <_>
          <internalNodes>
            0 -1 899 1.4419477432966232e-02</internalNodes>
          <leafValues>
            -6.4163930714130402e-02 5.7181072235107422e-01</leafValues></_>
        <_>
          <internalNodes>
            0 -1 691 -2.3377336561679840e-02</internalNodes>
          <leafValues>
            5.3855615854263306e-01 -7.6409406960010529e-02</leafValues></_>
        <_>
          <internalNodes>
            0 -1 603 -4.3474583071656525e-04</internalNodes>
          <leafValues>
            6.6618061065673828e-01 -6.8542242050170898e-02</leafValues></_>
        <_>
          <internalNodes>
            0 -1 707 -5.9463951038196683e-04</internalNodes>
          <leafValues>
            4.6141350269317627e-01 -7.7374182641506195e-02</leafValues></_>
        <_>
          <internalNodes>
            0 -1 645 -5.3239305270835757e-04</internalNodes>
          <leafValues>
            -6.3250935077667236e-01 7.3742493987083435e-02</leafValues></_>
        <_>
          <internalNodes>
            0 -1 917 1.1315984651446342e-02</internalNodes>
          <leafValues>
            -8.6058408021926880e-02 5.2196562290191650e-01</leafValues></_>
        <_>
          <internalNodes>
            0 -1 270 1.4752304414287210e-03</internalNodes>
          <leafValues>
            -9.2773690819740295e-02 4.1066399216651917e-01</leafValues></_>
        <_>
          <internalNodes>
            0 -1 267 -2.2387101780623198e-03</internalNodes>
          <leafValues>
            4.5383751392364502e-01 -9.9007628858089447e-02</leafValues></_>
        <_>
          <internalNodes>
            0 -1 145 6.2019401229918003e-03</internalNodes>
          <leafValues>
            7.5197964906692505e-02 -6.0723620653152466e-01</leafValues></_>
        <_>
          <internalNodes>
            0 -1 323 -4.0067033842206001e-03</internalNodes>
          <leafValues>
            2.5525104999542236e-01 -1.5733219683170319e-01</leafValues></_>
        <_>
          <internalNodes>
            0 -1 373 6.4761638641357422e-03</internalNodes>
          <leafValues>
            6.0708150267601013e-02 -6.3310009241104126e-01</leafValues></_>
        <_>
          <internalNodes>
            0 -1 94 6.6563053987920284e-03</internalNodes>
          <leafValues>
            -9.6666514873504639e-02 4.0894621610641479e-01</leafValues></_>
        <_>
          <internalNodes>
            0 -1 567 -4.0547517128288746e-03</internalNodes>
          <leafValues>
            -6.7813229560852051e-01 6.4893789589405060e-02</leafValues></_>
        <_>
          <internalNodes>
            0 -1 882 2.8718262910842896e-02</internalNodes>
          <leafValues>
            -1.1116234213113785e-01 3.6303871870040894e-01</leafValues></_>
        <_>
          <internalNodes>
            0 -1 175 3.7718699313700199e-03</internalNodes>
          <leafValues>
            -1.7458543181419373e-01 2.5608435273170471e-01</leafValues></_>
        <_>
          <internalNodes>
            0 -1 37 -2.7663735090754926e-04</internalNodes>
          <leafValues>
            -4.0143990516662598e-01 1.0623467713594437e-01</leafValues></_>
        <_>
          <internalNodes>
            0 -1 725 2.1076321136206388e-03</internalNodes>
          <leafValues>
            6.1728592962026596e-02 -5.6497281789779663e-01</leafValues></_>
        <_>
          <internalNodes>
            0 -1 732 -4.3756449595093727e-03</internalNodes>
          <leafValues>
            4.9650752544403076e-01 -8.1705860793590546e-02</leafValues></_>
        <_>
          <internalNodes>
            0 -1 511 -7.3682016227394342e-04</internalNodes>
          <leafValues>
            -4.4291290640830994e-01 9.0795442461967468e-02</leafValues></_>
        <_>
          <internalNodes>
            0 -1 341 -3.4335238160565495e-04</internalNodes>
          <leafValues>
            3.7422564625740051e-01 -1.0834882408380508e-01</leafValues></_>
        <_>
          <internalNodes>
            0 -1 750 -1.3959647912997752e-04</internalNodes>
          <leafValues>
            2.0756481587886810e-01 -1.9286940991878510e-01</leafValues></_>
        <_>
          <internalNodes>
            0 -1 650 -6.4579434692859650e-03</internalNodes>
          <leafValues>
            4.1957944631576538e-01 -8.7613008916378021e-02</leafValues></_>
        <_>
          <internalNodes>
            0 -1 761 4.0610276162624359e-02</internalNodes>
          <leafValues>
            5.0516109913587570e-02 -8.0087739229202271e-01</leafValues></_>
        <_>
          <internalNodes>
            0 -1 754 6.9208368659019470e-03</internalNodes>
          <leafValues>
            -8.6520098149776459e-02 4.7010040283203125e-01</leafValues></_>
        <_>
          <internalNodes>
            0 -1 788 7.1834153495728970e-03</internalNodes>
          <leafValues>
            8.5223227739334106e-02 -4.3404209613800049e-01</leafValues></_>
        <_>
          <internalNodes>
            0 -1 46 1.2071788311004639e-02</internalNodes>
          <leafValues>
            -9.2804349958896637e-02 3.9427265524864197e-01</leafValues></_></weakClassifiers></_>
    <!-- stage 5 -->
    <_>
      <maxWeakCount>43</maxWeakCount>
      <stageThreshold>-8.4084355831146240e-01</stageThreshold>
      <weakClassifiers>
        <_>
          <internalNodes>
            0 -1 205 1.7525427043437958e-02</internalNodes>
          <leafValues>
            3.7045052647590637e-01 -7.9640716314315796e-01</leafValues></_>
        <_>
          <internalNodes>
            0 -1 425 -1.9802151247859001e-02</internalNodes>
          <leafValues>
            5.5843061208724976e-01 -6.8829737603664398e-02</leafValues></_>
        <_>
          <internalNodes>
            0 -1 311 6.0544586740434170e-03</internalNodes>
          <leafValues>
            -1.5416190028190613e-01 2.9891374707221985e-01</leafValues></_>
        <_>
          <internalNodes>
            0 -1 437 1.8013132503256202e-03</internalNodes>
          <leafValues>
            -1.5914683043956757e-01 3.4883075952529907e-01</leafValues></_>
        <_>
          <internalNodes>
            0 -1 904 -1.9296975806355476e-02</internalNodes>
          <leafValues>
            5.7466471195220947e-01 -7.9302534461021423e-02</leafValues></_>
        <_>
          <internalNodes>
            0 -1 447 -8.9282088447362185e-04</internalNodes>
          <leafValues>
            2.9162102937698364e-01 -1.7031398415565491e-01</leafValues></_>
        <_>
          <internalNodes>
            0 -1 248 2.5532990694046021e-03</internalNodes>
          <leafValues>
            5.9125646948814392e-02 -6.7618942260742188e-01</leafValues></_>
        <_>
          <internalNodes>
            0 -1 2 1.1882895231246948e-01</internalNodes>
          <leafValues>
            -1.4375692605972290e-01 3.1175294518470764e-01</leafValues></_>
        <_>
          <internalNodes>
            0 -1 185 9.7332000732421875e-03</internalNodes>
          <leafValues>
            -1.3355468213558197e-01 2.9895877838134766e-01</leafValues></_>
        <_>
          <internalNodes>
            0 -1 302 -1.2893078383058310e-03</internalNodes>
          <leafValues>
            2.6984694600105286e-01 -1.5538145601749420e-01</leafValues></_>
        <_>
          <internalNodes>
            0 -1 389 1.1092248372733593e-02</internalNodes>
          <leafValues>
            -9.8986960947513580e-02 4.2430621385574341e-01</leafValues></_>
        <_>
          <internalNodes>
            0 -1 855 1.6113132238388062e-02</internalNodes>
          <leafValues>
            -9.6042037010192871e-02 4.1928529739379883e-01</leafValues></_>
        <_>
          <internalNodes>
            0 -1 214 -4.3166819959878922e-03</internalNodes>
          <leafValues>
            -4.6296620368957520e-01 8.2340009510517120e-02</leafValues></_>
        <_>
          <internalNodes>
            0 -1 582 9.8459981381893158e-04</internalNodes>
          <leafValues>
            -1.1797506362199783e-01 2.9493856430053711e-01</leafValues></_>
        <_>
          <internalNodes>
            0 -1 129 -4.6310782432556152e-02</internalNodes>
          <leafValues>
            -5.8229249715805054e-01 6.3028521835803986e-02</leafValues></_>
        <_>
          <internalNodes>
            0 -1 657 2.0476592704653740e-02</internalNodes>
          <leafValues>
            9.5104791224002838e-02 -4.6552231907844543e-01</leafValues></_>
        <_>
          <internalNodes>
            0 -1 913 -1.6083329683169723e-04</internalNodes>
          <leafValues>
            -3.2068523764610291e-01 1.1721476167440414e-01</leafValues></_>
        <_>
          <internalNodes>
            0 -1 12 1.3438880443572998e-01</internalNodes>
          <leafValues>
            8.8555186986923218e-02 -4.0649962425231934e-01</leafValues></_>
        <_>
          <internalNodes>
            0 -1 596 1.1892835609614849e-03</internalNodes>
          <leafValues>
            -2.2826828062534332e-01 1.6056409478187561e-01</leafValues></_>
        <_>
          <internalNodes>
            0 -1 156 -5.3280028514564037e-03</internalNodes>
          <leafValues>
            3.3497160673141479e-01 -1.0690602660179138e-01</leafValues></_>
        <_>
          <internalNodes>
            0 -1 287 -5.6414008140563965e-02</internalNodes>
          <leafValues>
            5.0365132093429565e-01 -7.3907971382141113e-02</leafValues></_>
        <_>
          <internalNodes>
            0 -1 560 2.1150497719645500e-02</internalNodes>
          <leafValues>
            -1.1577238142490387e-01 3.6141154170036316e-01</leafValues></_>
        <_>
          <internalNodes>
            0 -1 261 -7.5439363718032837e-03</internalNodes>
          <leafValues>
            4.9393299221992493e-01 -6.4920276403427124e-02</leafValues></_>
        <_>
          <internalNodes>
            0 -1 296 1.3418962480500340e-03</internalNodes>
          <leafValues>
            -1.6027951240539551e-01 2.4875673651695251e-01</leafValues></_>
        <_>
          <internalNodes>
            0 -1 336 4.9607700202614069e-04</internalNodes>
          <leafValues>
            -1.3249829411506653e-01 2.5973036885261536e-01</leafValues></_>
        <_>
          <internalNodes>
            0 -1 396 4.3494040146470070e-03</internalNodes>
          <leafValues>
            8.6415775120258331e-02 -5.0255709886550903e-01</leafValues></_>
        <_>
          <internalNodes>
            0 -1 58 -3.4729094477370381e-04</internalNodes>
          <leafValues>
            -4.0946355462074280e-01 8.5631966590881348e-02</leafValues></_>
        <_>
          <internalNodes>
            0 -1 34 8.7098926305770874e-03</internalNodes>
          <leafValues>
            -1.1670591682195663e-01 3.0163407325744629e-01</leafValues></_>
        <_>
          <internalNodes>
            0 -1 121 9.7323600202798843e-03</internalNodes>
          <leafValues>
            -9.6576847136020660e-02 3.6024287343025208e-01</leafValues></_>
        <_>
          <internalNodes>
            0 -1 68 8.3761196583509445e-04</internalNodes>
          <leafValues>
            1.0482704639434814e-01 -3.4083482623100281e-01</leafValues></_>
        <_>
          <internalNodes>
            0 -1 130 2.9670344665646553e-03</internalNodes>
          <leafValues>
            -1.6660186648368835e-01 2.0826677978038788e-01</leafValues></_>
        <_>
          <internalNodes>
            0 -1 190 2.6304200291633606e-03</internalNodes>
          <leafValues>
            7.8233830630779266e-02 -4.5668238401412964e-01</leafValues></_>
        <_>
          <internalNodes>
            0 -1 831 -1.3252025237306952e-03</internalNodes>
          <leafValues>
            -4.6202909946441650e-01 7.0705741643905640e-02</leafValues></_>
        <_>
          <internalNodes>
            0 -1 845 -1.2474129907786846e-03</internalNodes>
          <leafValues>
            -4.9796846508979797e-01 6.0827977955341339e-02</leafValues></_>
        <_>
          <internalNodes>
            0 -1 769 2.4483742890879512e-04</internalNodes>
          <leafValues>
            -9.5757417380809784e-02 3.6151620745658875e-01</leafValues></_>
        <_>
          <internalNodes>
            0 -1 669 -7.2243344038724899e-04</internalNodes>
          <leafValues>
            -3.8085472583770752e-01 8.8049873709678650e-02</leafValues></_>
        <_>
          <internalNodes>
            0 -1 742 4.0489423554390669e-04</internalNodes>
          <leafValues>
            -7.1985661983489990e-02 4.8755878210067749e-01</leafValues></_>
        <_>
          <internalNodes>
            0 -1 419 3.8358420133590698e-02</internalNodes>
          <leafValues>
            5.1972098648548126e-02 -6.6490226984024048e-01</leafValues></_>
        <_>
          <internalNodes>
            0 -1 874 -1.3124587014317513e-02</internalNodes>
          <leafValues>
            2.3764526844024658e-01 -1.4185854792594910e-01</leafValues></_>
        <_>
          <internalNodes>
            0 -1 317 -1.8846314400434494e-02</internalNodes>
          <leafValues>
            -5.4205113649368286e-01 7.0319272577762604e-02</leafValues></_>
        <_>
          <internalNodes>
            0 -1 316 1.5970166772603989e-02</internalNodes>
          <leafValues>
            -1.3250462710857391e-01 2.4709436297416687e-01</leafValues></_>
        <_>
          <internalNodes>
            0 -1 291 -2.0771159324795008e-03</internalNodes>
          <leafValues>
            3.4568551182746887e-01 -9.2967323958873749e-02</leafValues></_>
        <_>
          <internalNodes>
            0 -1 709 -4.0599126368761063e-03</internalNodes>
          <leafValues>
            -6.3997620344161987e-01 5.0325103104114532e-02</leafValues></_></weakClassifiers></_>
    <!-- stage 6 -->
    <_>
      <maxWeakCount>52</maxWeakCount>
      <stageThreshold>-8.6759567260742188e-01</stageThreshold>
      <weakClassifiers>
        <_>
          <internalNodes>
            0 -1 397 5.5025955662131310e-03</internalNodes>
          <leafValues>
            3.7636142969131470e-01 -3.9726027846336365e-01</leafValues></_>
        <_>
          <internalNodes>
            0 -1 435 8.5251242853701115e-04</internalNodes>
          <leafValues>
            -6.3538976013660431e-02 4.4493159651756287e-01</leafValues></_>
        <_>
          <internalNodes>
            0 -1 325 -1.2141447514295578e-03</internalNodes>
          <leafValues>
            2.7244782447814941e-01 -1.6616873443126678e-01</leafValues></_>
        <_>
          <internalNodes>
            0 -1 758 -5.9143621474504471e-02</internalNodes>
          <leafValues>
            4.7137710452079773e-01 -9.3469500541687012e-02</leafValues></_>
        <_>
          <internalNodes>
            0 -1 390 -1.8443050794303417e-03</internalNodes>
          <leafValues>
            2.6044139266014099e-01 -1.6923055052757263e-01</leafValues></_>
        <_>
          <internalNodes>
            0 -1 771 4.3174301390536129e-04</internalNodes>
          <leafValues>
            -1.1129155009984970e-01 3.7496474385261536e-01</leafValues></_>
        <_>
          <internalNodes>
            0 -1 570 6.2664854340255260e-03</internalNodes>
          <leafValues>
            -1.3513787090778351e-01 2.5632125139236450e-01</leafValues></_>
        <_>
          <internalNodes>
            0 -1 227 -2.9041007161140442e-02</internalNodes>
          <leafValues>
            -3.9937096834182739e-01 8.5237011313438416e-02</leafValues></_>
        <_>
          <internalNodes>
            0 -1 893 -1.2943359091877937e-02</internalNodes>
          <leafValues>
            4.3859162926673889e-01 -7.7792562544345856e-02</leafValues></_>
        <_>
          <internalNodes>
            0 -1 165 -4.9898244440555573e-02</internalNodes>
          <leafValues>
            3.1801480054855347e-01 -1.0653463006019592e-01</leafValues></_>
        <_>
          <internalNodes>
            0 -1 796 -6.7889969795942307e-03</internalNodes>
          <leafValues>
            1.9782967865467072e-01 -2.2565874457359314e-01</leafValues></_>
        <_>
          <internalNodes>
            0 -1 591 -1.1903434642590582e-04</internalNodes>
          <leafValues>
            1.8221332132816315e-01 -2.0108546316623688e-01</leafValues></_>
        <_>
          <internalNodes>
            0 -1 11 6.1057470738887787e-02</internalNodes>
          <leafValues>
            -7.3955886065959930e-02 4.4364255666732788e-01</leafValues></_>
        <_>
          <internalNodes>
            0 -1 266 8.7082019308581948e-04</internalNodes>
          <leafValues>
            -8.1026881933212280e-02 4.5385676622390747e-01</leafValues></_>
        <_>
          <internalNodes>
            0 -1 905 -3.5695541650056839e-02</internalNodes>
          <leafValues>
            5.0590395927429199e-01 -5.7640932500362396e-02</leafValues></_>
        <_>
          <internalNodes>
            0 -1 857 -1.5654006972908974e-02</internalNodes>
          <leafValues>
            3.3972251415252686e-01 -9.9703088402748108e-02</leafValues></_>
        <_>
          <internalNodes>
            0 -1 451 -2.6890332810580730e-04</internalNodes>
          <leafValues>
            2.5535687804222107e-01 -1.2571945786476135e-01</leafValues></_>
        <_>
          <internalNodes>
            0 -1 115 -9.1274857521057129e-02</internalNodes>
          <leafValues>
            -6.7929410934448242e-01 4.6160683035850525e-02</leafValues></_>
        <_>
          <internalNodes>
            0 -1 282 2.7902116999030113e-03</internalNodes>
          <leafValues>
            5.8846134692430496e-02 -4.4799816608428955e-01</leafValues></_>
        <_>
          <internalNodes>
            0 -1 387 -3.0475677922368050e-03</internalNodes>
          <leafValues>
            -6.0666882991790771e-01 5.0941497087478638e-02</leafValues></_>
        <_>
          <internalNodes>
            0 -1 216 -9.4109876081347466e-03</internalNodes>
          <leafValues>
            3.3560308814048767e-01 -1.0035012662410736e-01</leafValues></_>
        <_>
          <internalNodes>
            0 -1 198 -1.4558925293385983e-02</internalNodes>
          <leafValues>
            3.6466786265373230e-01 -8.2150496542453766e-02</leafValues></_>
        <_>
          <internalNodes>
            0 -1 87 -5.9198959206696600e-05</internalNodes>
          <leafValues>
            -2.3086561262607574e-01 1.2891407310962677e-01</leafValues></_>
        <_>
          <internalNodes>
            0 -1 599 5.5980670731514692e-04</internalNodes>
          <leafValues>
            -7.9075172543525696e-02 4.0635037422180176e-01</leafValues></_>
        <_>
          <internalNodes>
            0 -1 586 -4.3318740790709853e-04</internalNodes>
          <leafValues>
            2.7299576997756958e-01 -1.1699707061052322e-01</leafValues></_>
        <_>
          <internalNodes>
            0 -1 404 -1.6363724134862423e-03</internalNodes>
          <leafValues>
            -6.4252054691314697e-01 4.8931650817394257e-02</leafValues></_>
        <_>
          <internalNodes>
            0 -1 445 2.8079671319574118e-03</internalNodes>
          <leafValues>
            -1.5874503552913666e-01 2.0382553339004517e-01</leafValues></_>
        <_>
          <internalNodes>
            0 -1 892 -1.1916566640138626e-02</internalNodes>
          <leafValues>
            4.3849694728851318e-01 -7.1542620658874512e-02</leafValues></_>
        <_>
          <internalNodes>
            0 -1 808 5.1482362323440611e-05</internalNodes>
          <leafValues>
            1.2499340623617172e-01 -2.7692502737045288e-01</leafValues></_>
        <_>
          <internalNodes>
            0 -1 685 1.2652980163693428e-02</internalNodes>
          <leafValues>
            -7.7210493385791779e-02 4.3884190917015076e-01</leafValues></_>
        <_>
          <internalNodes>
            0 -1 700 2.0505720749497414e-04</internalNodes>
          <leafValues>
            -1.4326332509517670e-01 2.1592850983142853e-01</leafValues></_>
        <_>
          <internalNodes>
            0 -1 213 -3.9595173439010978e-04</internalNodes>
          <leafValues>
            1.5906038880348206e-01 -1.9868507981300354e-01</leafValues></_>
        <_>
          <internalNodes>
            0 -1 469 -1.5563759952783585e-03</internalNodes>
          <leafValues>
            3.5552304983139038e-01 -8.3965793251991272e-02</leafValues></_>
        <_>
          <internalNodes>
            0 -1 219 5.0362326204776764e-02</internalNodes>
          <leafValues>
            -8.2772575318813324e-02 3.9763346314430237e-01</leafValues></_>
        <_>
          <internalNodes>
            0 -1 277 -7.5291609391570091e-04</internalNodes>
          <leafValues>
            5.2587348222732544e-01 -5.9966262429952621e-02</leafValues></_>
        <_>
          <internalNodes>
            0 -1 50 -1.6717548714950681e-04</internalNodes>
          <leafValues>
            -2.8556525707244873e-01 1.1594250798225403e-01</leafValues></_>
        <_>
          <internalNodes>
            0 -1 337 4.0708705782890320e-03</internalNodes>
          <leafValues>
            -6.5061397850513458e-02 4.5830023288726807e-01</leafValues></_>
        <_>
          <internalNodes>
            0 -1 499 5.2976282313466072e-03</internalNodes>
          <leafValues>
            8.6350232362747192e-02 -3.9413195848464966e-01</leafValues></_>
        <_>
          <internalNodes>
            0 -1 330 -2.3164018057286739e-03</internalNodes>
          <leafValues>
            -6.4088988304138184e-01 4.8720780760049820e-02</leafValues></_>
        <_>
          <internalNodes>
            0 -1 706 -2.1042861044406891e-04</internalNodes>
          <leafValues>
            3.1383651494979858e-01 -9.6983030438423157e-02</leafValues></_>
        <_>
          <internalNodes>
            0 -1 694 3.1502440106123686e-04</internalNodes>
          <leafValues>
            7.3813475668430328e-02 -4.4512408971786499e-01</leafValues></_>
        <_>
          <internalNodes>
            0 -1 95 3.5877499729394913e-02</internalNodes>
          <leafValues>
            -6.8667382001876831e-02 4.5477086305618286e-01</leafValues></_>
        <_>
          <internalNodes>
            0 -1 795 -3.7827580235898495e-03</internalNodes>
          <leafValues>
            3.6385279893875122e-01 -7.5160793960094452e-02</leafValues></_>
        <_>
          <internalNodes>
            0 -1 141 1.4522583223879337e-03</internalNodes>
          <leafValues>
            6.0578040778636932e-02 -5.1996505260467529e-01</leafValues></_>
        <_>
          <internalNodes>
            0 -1 608 5.8398861438035965e-04</internalNodes>
          <leafValues>
            6.0559589415788651e-02 -4.3931201100349426e-01</leafValues></_>
        <_>
          <internalNodes>
            0 -1 809 4.2576366104185581e-04</internalNodes>
          <leafValues>
            -1.1349625140428543e-01 2.7514442801475525e-01</leafValues></_>
        <_>
          <internalNodes>
            0 -1 484 -6.8397494032979012e-03</internalNodes>
          <leafValues>
            -4.9352321028709412e-01 5.9959590435028076e-02</leafValues></_>
        <_>
          <internalNodes>
            0 -1 157 -2.2688263561576605e-03</internalNodes>
          <leafValues>
            5.2496182918548584e-01 -6.0815807431936264e-02</leafValues></_>
        <_>
          <internalNodes>
            0 -1 202 -1.0221309959888458e-02</internalNodes>
          <leafValues>
            6.0145211219787598e-01 -4.6863377094268799e-02</leafValues></_>
        <_>
          <internalNodes>
            0 -1 97 9.1359512880444527e-03</internalNodes>
          <leafValues>
            -6.2944673001766205e-02 4.2398405075073242e-01</leafValues></_>
        <_>
          <internalNodes>
            0 -1 247 1.1502439156174660e-03</internalNodes>
          <leafValues>
            6.4811877906322479e-02 -4.7917178273200989e-01</leafValues></_>
        <_>
          <internalNodes>
            0 -1 220 1.0537193156778812e-02</internalNodes>
          <leafValues>
            -9.3184903264045715e-02 3.1691330671310425e-01</leafValues></_></weakClassifiers></_>
    <!-- stage 7 -->
    <_>
      <maxWeakCount>52</maxWeakCount>
      <stageThreshold>-8.7242233753204346e-01</stageThreshold>
      <weakClassifiers>
        <_>
          <internalNodes>
            0 -1 559 -3.3199836034327745e-03</internalNodes>
          <leafValues>
            -3.5802468657493591e-01 3.9112487435340881e-01</leafValues></_>
        <_>
          <internalNodes>
            0 -1 369 -3.6677636206150055e-02</internalNodes>
          <leafValues>
            5.0446510314941406e-01 -7.4335120618343353e-02</leafValues></_>
        <_>
          <internalNodes>
            0 -1 55 -1.8257640302181244e-02</internalNodes>
          <leafValues>
            3.4533837437629700e-01 -1.2672862410545349e-01</leafValues></_>
        <_>
          <internalNodes>
            0 -1 162 2.8842522297054529e-03</internalNodes>
          <leafValues>
            5.6994646787643433e-02 -5.8726799488067627e-01</leafValues></_>
        <_>
          <internalNodes>
            0 -1 588 -8.9289259631186724e-04</internalNodes>
          <leafValues>
            2.4485275149345398e-01 -1.4816859364509583e-01</leafValues></_>
        <_>
          <internalNodes>
            0 -1 914 3.9661268237978220e-04</internalNodes>
          <leafValues>
            8.8705152273178101e-02 -3.6114904284477234e-01</leafValues></_>
        <_>
          <internalNodes>
            0 -1 493 1.3845927605871111e-04</internalNodes>
          <leafValues>
            -1.3800868391990662e-01 2.3740762472152710e-01</leafValues></_>
        <_>
          <internalNodes>
            0 -1 507 9.4123679446056485e-04</internalNodes>
          <leafValues>
            -1.5617236495018005e-01 2.8311863541603088e-01</leafValues></_>
        <_>
          <internalNodes>
            0 -1 731 1.6777056735008955e-03</internalNodes>
          <leafValues>
            8.4829360246658325e-02 -4.6321192383766174e-01</leafValues></_>
        <_>
          <internalNodes>
            0 -1 681 -3.6157886497676373e-03</internalNodes>
          <leafValues>
            -6.9158351421356201e-01 5.8947507292032242e-02</leafValues></_>
        <_>
          <internalNodes>
            0 -1 638 8.0571719445288181e-04</internalNodes>
          <leafValues>
            -6.1656877398490906e-02 5.6118482351303101e-01</leafValues></_>
        <_>
          <internalNodes>
            0 -1 663 1.2008347548544407e-03</internalNodes>
          <leafValues>
            -3.0987015366554260e-01 1.3102437555789948e-01</leafValues></_>
        <_>
          <internalNodes>
            0 -1 41 -8.8843429693952203e-05</internalNodes>
          <leafValues>
            -2.8819715976715088e-01 1.2440255284309387e-01</leafValues></_>
        <_>
          <internalNodes>
            0 -1 584 3.7443642504513264e-03</internalNodes>
          <leafValues>
            -9.6105933189392090e-02 4.0205004811286926e-01</leafValues></_>
        <_>
          <internalNodes>
            0 -1 38 1.6442462801933289e-01</internalNodes>
          <leafValues>
            -7.1185432374477386e-02 4.3444609642028809e-01</leafValues></_>
        <_>
          <internalNodes>
            0 -1 89 -6.7607462406158447e-03</internalNodes>
          <leafValues>
            1.8103012442588806e-01 -2.0622323453426361e-01</leafValues></_>
        <_>
          <internalNodes>
            0 -1 548 -4.6745274448767304e-04</internalNodes>
          <leafValues>
            -3.2470130920410156e-01 9.7126811742782593e-02</leafValues></_>
        <_>
          <internalNodes>
            0 -1 348 6.0022352263331413e-03</internalNodes>
          <leafValues>
            -1.2648525834083557e-01 2.5721821188926697e-01</leafValues></_>
        <_>
          <internalNodes>
            0 -1 246 4.9716243520379066e-03</internalNodes>
          <leafValues>
            6.1495129019021988e-02 -5.5508852005004883e-01</leafValues></_>
        <_>
          <internalNodes>
            0 -1 229 7.9366639256477356e-03</internalNodes>
          <leafValues>
            -1.4286439120769501e-01 2.5554752349853516e-01</leafValues></_>
        <_>
          <internalNodes>
            0 -1 869 -3.9303820813074708e-04</internalNodes>
          <leafValues>
            -3.8260069489479065e-01 9.5593340694904327e-02</leafValues></_>
        <_>
          <internalNodes>
            0 -1 303 6.4569863025099039e-04</internalNodes>
          <leafValues>
            -1.3164220750331879e-01 2.6540538668632507e-01</leafValues></_>
        <_>
          <internalNodes>
            0 -1 242 -8.5531659424304962e-03</internalNodes>
          <leafValues>
            -6.8932586908340454e-01 5.0847783684730530e-02</leafValues></_>
        <_>
          <internalNodes>
            0 -1 861 9.3727896455675364e-04</internalNodes>
          <leafValues>
            7.4698209762573242e-02 -3.8012975454330444e-01</leafValues></_>
        <_>
          <internalNodes>
            0 -1 748 1.2843770673498511e-04</internalNodes>
          <leafValues>
            -1.4437098801136017e-01 2.1388781070709229e-01</leafValues></_>
        <_>
          <internalNodes>
            0 -1 491 2.5691660994198173e-05</internalNodes>
          <leafValues>
            -1.7442589998245239e-01 1.9858747720718384e-01</leafValues></_>
        <_>
          <internalNodes>
            0 -1 655 2.7797903749160469e-04</internalNodes>
          <leafValues>
            7.3765076696872711e-02 -4.3261760473251343e-01</leafValues></_>
        <_>
          <internalNodes>
            0 -1 374 -6.0798553749918938e-04</internalNodes>
          <leafValues>
            4.0762066841125488e-01 -7.8161150217056274e-02</leafValues></_>
        <_>
          <internalNodes>
            0 -1 6 1.4656942221336067e-04</internalNodes>
          <leafValues>
            1.0435436666011810e-01 -3.1878343224525452e-01</leafValues></_>
        <_>
          <internalNodes>
            0 -1 492 8.9625309919938445e-04</internalNodes>
          <leafValues>
            -8.0743692815303802e-02 4.2672571539878845e-01</leafValues></_>
        <_>
          <internalNodes>
            0 -1 96 -1.2566116638481617e-02</internalNodes>
          <leafValues>
            5.5006641149520874e-01 -5.3648784756660461e-02</leafValues></_>
        <_>
          <internalNodes>
            0 -1 454 3.0763857066631317e-03</internalNodes>
          <leafValues>
            8.9474685490131378e-02 -4.0727439522743225e-01</leafValues></_>
        <_>
          <internalNodes>
            0 -1 816 -6.0069290921092033e-03</internalNodes>
          <leafValues>
            -7.6629215478897095e-01 3.9945535361766815e-02</leafValues></_>
        <_>
          <internalNodes>
            0 -1 830 2.3865443654358387e-03</internalNodes>
          <leafValues>
            -1.2324688583612442e-01 2.6702442765235901e-01</leafValues></_>
        <_>
          <internalNodes>
            0 -1 828 -1.2844792567193508e-02</internalNodes>
          <leafValues>
            3.6454561352729797e-01 -1.0082733631134033e-01</leafValues></_>
        <_>
          <internalNodes>
            0 -1 483 -1.5697605907917023e-02</internalNodes>
          <leafValues>
            -4.3621286749839783e-01 8.7654471397399902e-02</leafValues></_>
        <_>
          <internalNodes>
            0 -1 528 2.2439543681684881e-04</internalNodes>
          <leafValues>
            8.2911469042301178e-02 -3.8663274049758911e-01</leafValues></_>
        <_>
          <internalNodes>
            0 -1 203 -1.2445896863937378e-02</internalNodes>
          <leafValues>
            5.7629823684692383e-01 -5.9147663414478302e-02</leafValues></_>
        <_>
          <internalNodes>
            0 -1 209 1.4097313396632671e-02</internalNodes>
          <leafValues>
            5.7033732533454895e-02 -6.5286028385162354e-01</leafValues></_>
        <_>
          <internalNodes>
            0 -1 362 4.4895239174365997e-02</internalNodes>
          <leafValues>
            3.8159549236297607e-02 -6.5537703037261963e-01</leafValues></_>
        <_>
          <internalNodes>
            0 -1 222 1.3153621926903725e-02</internalNodes>
          <leafValues>
            -1.2931136786937714e-01 2.4644961953163147e-01</leafValues></_>
        <_>
          <internalNodes>
            0 -1 759 1.3698622584342957e-02</internalNodes>
          <leafValues>
            -9.8926000297069550e-02 3.2298678159713745e-01</leafValues></_>
        <_>
          <internalNodes>
            0 -1 902 2.6138436049222946e-02</internalNodes>
          <leafValues>
            -5.6760959327220917e-02 5.5336308479309082e-01</leafValues></_>
        <_>
          <internalNodes>
            0 -1 57 1.6806237399578094e-03</internalNodes>
          <leafValues>
            1.2490161508321762e-01 -2.4450518190860748e-01</leafValues></_>
        <_>
          <internalNodes>
            0 -1 543 8.2806276623159647e-04</internalNodes>
          <leafValues>
            -1.1897017806768417e-01 2.5740608572959900e-01</leafValues></_>
        <_>
          <internalNodes>
            0 -1 354 2.1154120564460754e-02</internalNodes>
          <leafValues>
            -1.0331736505031586e-01 3.2838678359985352e-01</leafValues></_>
        <_>
          <internalNodes>
            0 -1 221 7.1117645129561424e-03</internalNodes>
          <leafValues>
            -1.1976835131645203e-01 2.4666537344455719e-01</leafValues></_>
        <_>
          <internalNodes>
            0 -1 313 -6.2793390825390816e-03</internalNodes>
          <leafValues>
            -7.3731178045272827e-01 4.6183656901121140e-02</leafValues></_>
        <_>
          <internalNodes>
            0 -1 326 -1.4077292289584875e-03</internalNodes>
          <leafValues>
            2.2768476605415344e-01 -1.4049315452575684e-01</leafValues></_>
        <_>
          <internalNodes>
            0 -1 777 -2.8494750149548054e-03</internalNodes>
          <leafValues>
            -5.0869607925415039e-01 6.4192011952400208e-02</leafValues></_>
        <_>
          <internalNodes>
            0 -1 107 2.4751029908657074e-02</internalNodes>
          <leafValues>
            -7.3880322277545929e-02 4.4538116455078125e-01</leafValues></_>
        <_>
          <internalNodes>
            0 -1 119 -5.5265724658966064e-03</internalNodes>
          <leafValues>
            4.1365501284599304e-01 -7.1799010038375854e-02</leafValues></_></weakClassifiers></_>
    <!-- stage 8 -->
    <_>
      <maxWeakCount>52</maxWeakCount>
      <stageThreshold>-7.5571280717849731e-01</stageThreshold>
      <weakClassifiers>
        <_>
          <internalNodes>
            0 -1 20 6.9697890430688858e-03</internalNodes>
          <leafValues>
            2.5378701090812683e-01 6.8925964832305908e-01</leafValues></_>
        <_>
          <internalNodes>
            0 -1 767 -1.7850458389148116e-03</internalNodes>
          <leafValues>
            3.5371643304824829e-01 -8.5606880486011505e-02</leafValues></_>
        <_>
          <internalNodes>
            0 -1 606 -3.7573353620246053e-04</internalNodes>
          <leafValues>
            1.8451634049415588e-01 -1.9393597543239594e-01</leafValues></_>
        <_>
          <internalNodes>
            0 -1 894 -1.2107918038964272e-02</internalNodes>
          <leafValues>
            4.6454474329948425e-01 -7.3433764278888702e-02</leafValues></_>
        <_>
          <internalNodes>
            0 -1 652 -3.8793824613094330e-02</internalNodes>
          <leafValues>
            4.2687919735908508e-01 -1.2437655776739120e-01</leafValues></_>
        <_>
          <internalNodes>
            0 -1 289 6.5472442656755447e-03</internalNodes>
          <leafValues>
            -1.6706618666648865e-01 2.1656294167041779e-01</leafValues></_>
        <_>
          <internalNodes>
            0 -1 229 1.2648561969399452e-02</internalNodes>
          <leafValues>
            -1.0272516310214996e-01 3.4724327921867371e-01</leafValues></_>
        <_>
          <internalNodes>
            0 -1 804 -1.4660624787211418e-02</internalNodes>
          <leafValues>
            3.8558667898178101e-01 -7.5131170451641083e-02</leafValues></_>
        <_>
          <internalNodes>
            0 -1 558 -2.1062395535409451e-03</internalNodes>
          <leafValues>
            -6.3499206304550171e-01 4.9877241253852844e-02</leafValues></_>
        <_>
          <internalNodes>
            0 -1 529 -2.0601283758878708e-03</internalNodes>
          <leafValues>
            4.4707909226417542e-01 -7.4966445565223694e-02</leafValues></_>
        <_>
          <internalNodes>
            0 -1 292 -1.7647750675678253e-02</internalNodes>
          <leafValues>
            -4.3908399343490601e-01 7.9201586544513702e-02</leafValues></_>
        <_>
          <internalNodes>
            0 -1 321 4.0861358866095543e-03</internalNodes>
          <leafValues>
            5.2297301590442657e-02 -5.5255299806594849e-01</leafValues></_>
        <_>
          <internalNodes>
            0 -1 720 2.6265112683176994e-03</internalNodes>
          <leafValues>
            -1.4192925393581390e-01 1.9030666351318359e-01</leafValues></_>
        <_>
          <internalNodes>
            0 -1 134 -7.6499336864799261e-04</internalNodes>
          <leafValues>
            1.3995167613029480e-01 -2.2791418433189392e-01</leafValues></_>
        <_>
          <internalNodes>
            0 -1 853 -9.9606812000274658e-03</internalNodes>
          <leafValues>
            4.8364189267158508e-01 -6.0919549316167831e-02</leafValues></_>
        <_>
          <internalNodes>
            0 -1 779 2.3542419075965881e-03</internalNodes>
          <leafValues>
            6.7238867282867432e-02 -4.4990846514701843e-01</leafValues></_>
        <_>
          <internalNodes>
            0 -1 819 -1.9528863951563835e-02</internalNodes>
          <leafValues>
            -4.2892625927925110e-01 6.1841346323490143e-02</leafValues></_>
        <_>
          <internalNodes>
            0 -1 326 -1.9337246194481850e-03</internalNodes>
          <leafValues>
            2.4478325247764587e-01 -1.1470373719930649e-01</leafValues></_>
        <_>
          <internalNodes>
            0 -1 654 -8.9999400079250336e-03</internalNodes>
          <leafValues>
            -3.6015841364860535e-01 9.4503566622734070e-02</leafValues></_>
        <_>
          <internalNodes>
            0 -1 376 5.7503441348671913e-04</internalNodes>
          <leafValues>
            -1.0898227989673615e-01 3.0441001057624817e-01</leafValues></_>
        <_>
          <internalNodes>
            0 -1 309 -2.5734012015163898e-03</internalNodes>
          <leafValues>
            -4.9313253164291382e-01 6.2341902405023575e-02</leafValues></_>
        <_>
          <internalNodes>
            0 -1 907 -5.5113853886723518e-03</internalNodes>
          <leafValues>
            4.3825024366378784e-01 -6.8862654268741608e-02</leafValues></_>
        <_>
          <internalNodes>
            0 -1 516 -2.0330757251940668e-04</internalNodes>
          <leafValues>
            -3.2275909185409546e-01 8.8035352528095245e-02</leafValues></_>
        <_>
          <internalNodes>
            0 -1 307 1.1612861417233944e-03</internalNodes>
          <leafValues>
            -8.5457570850849152e-02 3.2204675674438477e-01</leafValues></_>
        <_>
          <internalNodes>
            0 -1 158 6.6312856506556273e-04</internalNodes>
          <leafValues>
            -1.2632510066032410e-01 2.4764728546142578e-01</leafValues></_>
        <_>
          <internalNodes>
            0 -1 838 1.2819724157452583e-02</internalNodes>
          <leafValues>
            -1.1831295490264893e-01 2.3008824884891510e-01</leafValues></_>
        <_>
          <internalNodes>
            0 -1 862 1.0493972804397345e-03</internalNodes>
          <leafValues>
            9.0574823319911957e-02 -3.1415966153144836e-01</leafValues></_>
        <_>
          <internalNodes>
            0 -1 92 4.2299356311559677e-02</internalNodes>
          <leafValues>
            -8.2885682582855225e-02 3.3596956729888916e-01</leafValues></_>
        <_>
          <internalNodes>
            0 -1 641 -2.4383409709116677e-06</internalNodes>
          <leafValues>
            1.6351595520973206e-01 -1.9535487890243530e-01</leafValues></_>
        <_>
          <internalNodes>
            0 -1 738 4.0733715286478400e-04</internalNodes>
          <leafValues>
            -1.1052595824003220e-01 2.3843722045421600e-01</leafValues></_>
        <_>
          <internalNodes>
            0 -1 456 -2.8226518770679832e-04</internalNodes>
          <leafValues>
            1.9051361083984375e-01 -1.6810753941535950e-01</leafValues></_>
        <_>
          <internalNodes>
            0 -1 345 -3.0032685026526451e-03</internalNodes>
          <leafValues>
            -5.0923281908035278e-01 5.9547688812017441e-02</leafValues></_>
        <_>
          <internalNodes>
            0 -1 667 -1.0734094394138083e-04</internalNodes>
          <leafValues>
            1.9293001294136047e-01 -1.4904114603996277e-01</leafValues></_>
        <_>
          <internalNodes>
            0 -1 569 -1.1050263419747353e-03</internalNodes>
          <leafValues>
            -5.8276569843292236e-01 5.1248338073492050e-02</leafValues></_>
        <_>
          <internalNodes>
            0 -1 169 1.0820305906236172e-02</internalNodes>
          <leafValues>
            -1.2396042793989182e-01 2.2855550050735474e-01</leafValues></_>
        <_>
          <internalNodes>
            0 -1 252 -1.4225805178284645e-02</internalNodes>
          <leafValues>
            3.8554513454437256e-01 -7.3962993919849396e-02</leafValues></_>
        <_>
          <internalNodes>
            0 -1 721 1.5221752226352692e-02</internalNodes>
          <leafValues>
            -8.5925549268722534e-02 3.0095833539962769e-01</leafValues></_>
        <_>
          <internalNodes>
            0 -1 148 -3.9671823382377625e-02</internalNodes>
          <leafValues>
            2.3724360764026642e-01 -1.3746353983879089e-01</leafValues></_>
        <_>
          <internalNodes>
            0 -1 605 -1.0153333423659205e-03</internalNodes>
          <leafValues>
            5.4204225540161133e-01 -5.5545452982187271e-02</leafValues></_>
        <_>
          <internalNodes>
            0 -1 922 1.2143680214649066e-04</internalNodes>
          <leafValues>
            1.1038977652788162e-01 -2.5763514637947083e-01</leafValues></_>
        <_>
          <internalNodes>
            0 -1 873 6.2981096561998129e-04</internalNodes>
          <leafValues>
            9.6546582877635956e-02 -2.6707440614700317e-01</leafValues></_>
        <_>
          <internalNodes>
            0 -1 580 -3.7901569157838821e-04</internalNodes>
          <leafValues>
            2.8334015607833862e-01 -9.5502257347106934e-02</leafValues></_>
        <_>
          <internalNodes>
            0 -1 491 2.5443739559705136e-06</internalNodes>
          <leafValues>
            -1.8066531419754028e-01 1.5114165842533112e-01</leafValues></_>
        <_>
          <internalNodes>
            0 -1 489 2.3415379691869020e-03</internalNodes>
          <leafValues>
            5.4477993398904800e-02 -5.4173457622528076e-01</leafValues></_>
        <_>
          <internalNodes>
            0 -1 355 1.6379905864596367e-03</internalNodes>
          <leafValues>
            -9.6787042915821075e-02 2.8928911685943604e-01</leafValues></_>
        <_>
          <internalNodes>
            0 -1 648 1.0627718875184655e-03</internalNodes>
          <leafValues>
            -3.8564123213291168e-02 6.4252638816833496e-01</leafValues></_>
        <_>
          <internalNodes>
            0 -1 803 -1.1035453062504530e-03</internalNodes>
          <leafValues>
            -6.8209975957870483e-01 4.5193068683147430e-02</leafValues></_>
        <_>
          <internalNodes>
            0 -1 551 4.5747857075184584e-04</internalNodes>
          <leafValues>
            -9.0423628687858582e-02 3.2130423188209534e-01</leafValues></_>
        <_>
          <internalNodes>
            0 -1 637 4.7977511712815613e-05</internalNodes>
          <leafValues>
            1.0158702731132507e-01 -2.9553607106208801e-01</leafValues></_>
        <_>
          <internalNodes>
            0 -1 438 -2.2206832654774189e-03</internalNodes>
          <leafValues>
            1.6579973697662354e-01 -2.0352992415428162e-01</leafValues></_>
        <_>
          <internalNodes>
            0 -1 343 2.6064579287776724e-05</internalNodes>
          <leafValues>
            -1.9834725558757782e-01 1.4883872866630554e-01</leafValues></_>
        <_>
          <internalNodes>
            0 -1 324 1.3942109420895576e-02</internalNodes>
          <leafValues>
            4.5612316578626633e-02 -6.8230295181274414e-01</leafValues></_></weakClassifiers></_>
    <!-- stage 9 -->
    <_>
      <maxWeakCount>61</maxWeakCount>
      <stageThreshold>-7.9722118377685547e-01</stageThreshold>
      <weakClassifiers>
        <_>
          <internalNodes>
            0 -1 18 1.0556956753134727e-02</internalNodes>
          <leafValues>
            2.2922180593013763e-01 6.0054349899291992e-01</leafValues></_>
        <_>
          <internalNodes>
            0 -1 814 -1.4404675923287868e-02</internalNodes>
          <leafValues>
            4.0541109442710876e-01 -5.4065246134996414e-02</leafValues></_>
        <_>
          <internalNodes>
            0 -1 394 -1.6789935529232025e-02</internalNodes>
          <leafValues>
            2.2856086492538452e-01 -1.6059593856334686e-01</leafValues></_>
        <_>
          <internalNodes>
            0 -1 465 3.5801532212644815e-03</internalNodes>
          <leafValues>
            -1.2916232645511627e-01 2.2797465324401855e-01</leafValues></_>
        <_>
          <internalNodes>
            0 -1 388 5.4895511129871011e-04</internalNodes>
          <leafValues>
            4.5411471277475357e-02 -5.2326667308807373e-01</leafValues></_>
        <_>
          <internalNodes>
            0 -1 782 -2.0622439682483673e-02</internalNodes>
          <leafValues>
            -4.4026976823806763e-01 5.9109307825565338e-02</leafValues></_>
        <_>
          <internalNodes>
            0 -1 144 -2.0084887742996216e-02</internalNodes>
          <leafValues>
            4.0587395429611206e-01 -5.7447884231805801e-02</leafValues></_>
        <_>
          <internalNodes>
            0 -1 101 -5.6325765326619148e-03</internalNodes>
          <leafValues>
            1.9499540328979492e-01 -1.7318293452262878e-01</leafValues></_>
        <_>
          <internalNodes>
            0 -1 45 -3.5773470997810364e-02</internalNodes>
          <leafValues>
            2.3471251130104065e-01 -1.2400352954864502e-01</leafValues></_>
        <_>
          <internalNodes>
            0 -1 360 -1.1542576551437378e-01</internalNodes>
          <leafValues>
            -4.2764285206794739e-01 7.3069415986537933e-02</leafValues></_>
        <_>
          <internalNodes>
            0 -1 673 -5.7945079170167446e-03</internalNodes>
          <leafValues>
            3.4003081917762756e-01 -9.2414736747741699e-02</leafValues></_>
        <_>
          <internalNodes>
            0 -1 441 4.0730647742748260e-03</internalNodes>
          <leafValues>
            -1.3515479862689972e-01 2.2041952610015869e-01</leafValues></_>
        <_>
          <internalNodes>
            0 -1 281 -2.6895345654338598e-03</internalNodes>
          <leafValues>
            -4.8333021998405457e-01 5.8809269219636917e-02</leafValues></_>
        <_>
          <internalNodes>
            0 -1 903 -1.2332072481513023e-02</internalNodes>
          <leafValues>
            5.0148266553878784e-01 -5.9106450527906418e-02</leafValues></_>
        <_>
          <internalNodes>
            0 -1 436 -1.7925606807693839e-03</internalNodes>
          <leafValues>
            3.2206290960311890e-01 -8.3149358630180359e-02</leafValues></_>
        <_>
          <internalNodes>
            0 -1 442 8.3794130478054285e-04</internalNodes>
          <leafValues>
            -1.5997213125228882e-01 2.0158925652503967e-01</leafValues></_>
        <_>
          <internalNodes>
            0 -1 525 -3.7183542735874653e-04</internalNodes>
          <leafValues>
            1.5380527079105377e-01 -1.9034041464328766e-01</leafValues></_>
        <_>
          <internalNodes>
            0 -1 675 -1.9334407988935709e-04</internalNodes>
          <leafValues>
            1.5029597282409668e-01 -2.0995149016380310e-01</leafValues></_>
        <_>
          <internalNodes>
            0 -1 573 2.0533660426735878e-02</internalNodes>
          <leafValues>
            7.8018315136432648e-02 -3.9207270741462708e-01</leafValues></_>
        <_>
          <internalNodes>
            0 -1 797 -2.0684143528342247e-03</internalNodes>
          <leafValues>
            2.5762939453125000e-01 -1.1879572272300720e-01</leafValues></_>
        <_>
          <internalNodes>
            0 -1 200 6.9678612053394318e-02</internalNodes>
          <leafValues>
            -5.2448209375143051e-02 4.6959733963012695e-01</leafValues></_>
        <_>
          <internalNodes>
            0 -1 924 -4.1014479938894510e-04</internalNodes>
          <leafValues>
            -2.6448836922645569e-01 1.0460737347602844e-01</leafValues></_>
        <_>
          <internalNodes>
            0 -1 911 4.4572227634489536e-03</internalNodes>
          <leafValues>
            -8.2025319337844849e-02 3.2068932056427002e-01</leafValues></_>
        <_>
          <internalNodes>
            0 -1 872 -8.2059577107429504e-03</internalNodes>
          <leafValues>
            -6.3544106483459473e-01 4.4219400733709335e-02</leafValues></_>
        <_>
          <internalNodes>
            0 -1 737 -4.6623656526207924e-03</internalNodes>
          <leafValues>
            4.1104385256767273e-01 -6.8306483328342438e-02</leafValues></_>
        <_>
          <internalNodes>
            0 -1 546 9.5996569143608212e-05</internalNodes>
          <leafValues>
            8.1099756062030792e-02 -3.5259312391281128e-01</leafValues></_>
        <_>
          <internalNodes>
            0 -1 562 -2.3938743397593498e-03</internalNodes>
          <leafValues>
            2.4769783020019531e-01 -1.0963302850723267e-01</leafValues></_>
        <_>
          <internalNodes>
            0 -1 722 -6.4804237335920334e-03</internalNodes>
          <leafValues>
            -5.4481393098831177e-01 5.6293666362762451e-02</leafValues></_>
        <_>
          <internalNodes>
            0 -1 603 -2.5036797160282731e-04</internalNodes>
          <leafValues>
            3.4246793389320374e-01 -8.5228659212589264e-02</leafValues></_>
        <_>
          <internalNodes>
            0 -1 879 3.1699910759925842e-02</internalNodes>
          <leafValues>
            -3.6303080618381500e-02 5.9959286451339722e-01</leafValues></_>
        <_>
          <internalNodes>
            0 -1 799 7.1863248012959957e-04</internalNodes>
          <leafValues>
            1.4190866053104401e-01 -2.1715493500232697e-01</leafValues></_>
        <_>
          <internalNodes>
            0 -1 813 -4.1472204029560089e-03</internalNodes>
          <leafValues>
            -5.3087341785430908e-01 4.8024427145719528e-02</leafValues></_>
        <_>
          <internalNodes>
            0 -1 770 -6.6471844911575317e-04</internalNodes>
          <leafValues>
            2.0385034382343292e-01 -1.2943685054779053e-01</leafValues></_>
        <_>
          <internalNodes>
            0 -1 919 1.0815196437761188e-03</internalNodes>
          <leafValues>
            8.8880553841590881e-02 -2.9221799969673157e-01</leafValues></_>
        <_>
          <internalNodes>
            0 -1 88 1.5196191088762134e-04</internalNodes>
          <leafValues>
            9.2901498079299927e-02 -2.6302787661552429e-01</leafValues></_>
        <_>
          <internalNodes>
            0 -1 375 3.1963660148903728e-04</internalNodes>
          <leafValues>
            -1.2316318601369858e-01 1.9432158768177032e-01</leafValues></_>
        <_>
          <internalNodes>
            0 -1 346 1.1947385501116514e-03</internalNodes>
          <leafValues>
            5.8181021362543106e-02 -4.6066799759864807e-01</leafValues></_>
        <_>
          <internalNodes>
            0 -1 1 -2.6518169324845076e-03</internalNodes>
          <leafValues>
            -3.5955244302749634e-01 6.5403982996940613e-02</leafValues></_>
        <_>
          <internalNodes>
            0 -1 264 7.9592957627028227e-04</internalNodes>
          <leafValues>
            -5.7696714997291565e-02 4.4535565376281738e-01</leafValues></_>
        <_>
          <internalNodes>
            0 -1 463 4.5507005415856838e-04</internalNodes>
          <leafValues>
            6.8227678537368774e-02 -3.9796444773674011e-01</leafValues></_>
        <_>
          <internalNodes>
            0 -1 10 5.8413483202457428e-04</internalNodes>
          <leafValues>
            7.9467743635177612e-02 -3.0163136124610901e-01</leafValues></_>
        <_>
          <internalNodes>
            0 -1 378 5.5275578051805496e-04</internalNodes>
          <leafValues>
            -8.7696596980094910e-02 2.7916300296783447e-01</leafValues></_>
        <_>
          <internalNodes>
            0 -1 727 5.8095240965485573e-03</internalNodes>
          <leafValues>
            -7.8998565673828125e-02 3.3214560151100159e-01</leafValues></_>
        <_>
          <internalNodes>
            0 -1 616 3.0389640014618635e-03</internalNodes>
          <leafValues>
            -1.3218851387500763e-01 2.0869959890842438e-01</leafValues></_>
        <_>
          <internalNodes>
            0 -1 365 -2.2372059524059296e-02</internalNodes>
          <leafValues>
            -7.5310748815536499e-01 3.8832008838653564e-02</leafValues></_>
        <_>
          <internalNodes>
            0 -1 900 -9.4470903277397156e-02</internalNodes>
          <leafValues>
            3.9788180589675903e-01 -7.8395657241344452e-02</leafValues></_>
        <_>
          <internalNodes>
            0 -1 910 1.1371390894055367e-02</internalNodes>
          <leafValues>
            -5.7893943041563034e-02 3.9819034934043884e-01</leafValues></_>
        <_>
          <internalNodes>
            0 -1 518 8.2905375165864825e-05</internalNodes>
          <leafValues>
            1.1991792172193527e-01 -2.3612409830093384e-01</leafValues></_>
        <_>
          <internalNodes>
            0 -1 513 -1.0616503655910492e-02</internalNodes>
          <leafValues>
            3.1587138772010803e-01 -8.9639723300933838e-02</leafValues></_>
        <_>
          <internalNodes>
            0 -1 226 2.8491972014307976e-02</internalNodes>
          <leafValues>
            -7.8028582036495209e-02 3.1078475713729858e-01</leafValues></_>
        <_>
          <internalNodes>
            0 -1 597 2.6429072022438049e-04</internalNodes>
          <leafValues>
            1.5205958485603333e-01 -1.8928860127925873e-01</leafValues></_>
        <_>
          <internalNodes>
            0 -1 644 1.1721396585926414e-03</internalNodes>
          <leafValues>
            -1.3381884992122650e-01 1.8031452596187592e-01</leafValues></_>
        <_>
          <internalNodes>
            0 -1 315 8.7535387137904763e-04</internalNodes>
          <leafValues>
            4.0103737264871597e-02 -6.4093619585037231e-01</leafValues></_>
        <_>
          <internalNodes>
            0 -1 742 -4.5596226118505001e-04</internalNodes>
          <leafValues>
            4.5584973692893982e-01 -5.7459298521280289e-02</leafValues></_>
        <_>
          <internalNodes>
            0 -1 666 -6.1828014440834522e-04</internalNodes>
          <leafValues>
            2.6831948757171631e-01 -9.2609308660030365e-02</leafValues></_>
        <_>
          <internalNodes>
            0 -1 897 -2.0338217727839947e-03</internalNodes>
          <leafValues>
            4.0415003895759583e-01 -6.3522942364215851e-02</leafValues></_>
        <_>
          <internalNodes>
            0 -1 733 8.3030213136225939e-04</internalNodes>
          <leafValues>
            5.7110298424959183e-02 -4.7574624419212341e-01</leafValues></_>
        <_>
          <internalNodes>
            0 -1 611 -3.7038931623101234e-03</internalNodes>
          <leafValues>
            -6.5777915716171265e-01 3.4394450485706329e-02</leafValues></_>
        <_>
          <internalNodes>
            0 -1 642 -1.9032057025469840e-05</internalNodes>
          <leafValues>
            1.3789047300815582e-01 -1.7306520044803619e-01</leafValues></_>
        <_>
          <internalNodes>
            0 -1 708 -1.4022547984495759e-03</internalNodes>
          <leafValues>
            5.1364606618881226e-01 -5.0825268030166626e-02</leafValues></_>
        <_>
          <internalNodes>
            0 -1 225 1.5599692706018686e-03</internalNodes>
          <leafValues>
            -1.3126881420612335e-01 1.9460947811603546e-01</leafValues></_></weakClassifiers></_>
    <!-- stage 10 -->
    <_>
      <maxWeakCount>63</maxWeakCount>
      <stageThreshold>-7.9141634702682495e-01</stageThreshold>
      <weakClassifiers>
        <_>
          <internalNodes>
            0 -1 136 2.7000999078154564e-02</internalNodes>
          <leafValues>
            2.2578859329223633e-01 5.7090467214584351e-01</leafValues></_>
        <_>
          <internalNodes>
            0 -1 70 1.0704040527343750e-01</internalNodes>
          <leafValues>
            -4.6924892812967300e-02 3.9018020033836365e-01</leafValues></_>
        <_>
          <internalNodes>
            0 -1 306 1.1006717104464769e-03</internalNodes>
          <leafValues>
            -9.8932400345802307e-02 2.7828899025917053e-01</leafValues></_>
        <_>
          <internalNodes>
            0 -1 574 2.5567252188920975e-02</internalNodes>
          <leafValues>
            3.9632134139537811e-02 -5.7470840215682983e-01</leafValues></_>
        <_>
          <internalNodes>
            0 -1 116 -5.6996895000338554e-03</internalNodes>
          <leafValues>
            -5.2107191085815430e-01 5.5390708148479462e-02</leafValues></_>
        <_>
          <internalNodes>
            0 -1 625 -5.0403298810124397e-03</internalNodes>
          <leafValues>
            1.9916139543056488e-01 -1.4418587088584900e-01</leafValues></_>
        <_>
          <internalNodes>
            0 -1 240 5.9994552284479141e-03</internalNodes>
          <leafValues>
            -1.3026089966297150e-01 3.1466507911682129e-01</leafValues></_>
        <_>
          <internalNodes>
            0 -1 398 -1.2651151046156883e-02</internalNodes>
          <leafValues>
            -4.6966290473937988e-01 6.5053075551986694e-02</leafValues></_>
        <_>
          <internalNodes>
            0 -1 542 1.1683281045407057e-03</internalNodes>
          <leafValues>
            -1.0453688353300095e-01 2.6107195019721985e-01</leafValues></_>
        <_>
          <internalNodes>
            0 -1 599 -6.9426500704139471e-04</internalNodes>
          <leafValues>
            3.5067674517631531e-01 -9.4448715448379517e-02</leafValues></_>
        <_>
          <internalNodes>
            0 -1 164 -4.4587315060198307e-03</internalNodes>
          <leafValues>
            -5.7507663965225220e-01 5.8052700012922287e-02</leafValues></_>
        <_>
          <internalNodes>
            0 -1 64 5.7405568659305573e-02</internalNodes>
          <leafValues>
            -1.0334939509630203e-01 2.8700271248817444e-01</leafValues></_>
        <_>
          <internalNodes>
            0 -1 199 -6.5211458131670952e-03</internalNodes>
          <leafValues>
            2.4231660366058350e-01 -1.1197651922702789e-01</leafValues></_>
        <_>
          <internalNodes>
            0 -1 338 3.7589436396956444e-03</internalNodes>
          <leafValues>
            3.1965933740139008e-02 -8.5282814502716064e-01</leafValues></_>
        <_>
          <internalNodes>
            0 -1 427 1.5569033566862345e-03</internalNodes>
          <leafValues>
            4.4809259474277496e-02 -4.8863244056701660e-01</leafValues></_>
        <_>
          <internalNodes>
            0 -1 585 -1.1723362840712070e-03</internalNodes>
          <leafValues>
            3.0402079224586487e-01 -9.1107249259948730e-02</leafValues></_>
        <_>
          <internalNodes>
            0 -1 110 8.9395586401224136e-03</internalNodes>
          <leafValues>
            -6.2375091016292572e-02 4.0490502119064331e-01</leafValues></_>
        <_>
          <internalNodes>
            0 -1 74 -9.7179934382438660e-03</internalNodes>
          <leafValues>
            -5.4607266187667847e-01 4.8983369022607803e-02</leafValues></_>
        <_>
          <internalNodes>
            0 -1 67 2.9805912636220455e-03</internalNodes>
          <leafValues>
            -9.8723672330379486e-02 2.6667079329490662e-01</leafValues></_>
        <_>
          <internalNodes>
            0 -1 314 -4.8422627151012421e-03</internalNodes>
          <leafValues>
            2.6376518607139587e-01 -9.6490614116191864e-02</leafValues></_>
        <_>
          <internalNodes>
            0 -1 647 2.8665504942182451e-05</internalNodes>
          <leafValues>
            1.0912515968084335e-01 -2.7484014630317688e-01</leafValues></_>
        <_>
          <internalNodes>
            0 -1 772 1.1532080825418234e-03</internalNodes>
          <leafValues>
            -8.5808180272579193e-02 3.1648367643356323e-01</leafValues></_>
        <_>
          <internalNodes>
            0 -1 413 1.6300394199788570e-03</internalNodes>
          <leafValues>
            5.9675805270671844e-02 -4.5366859436035156e-01</leafValues></_>
        <_>
          <internalNodes>
            0 -1 206 2.5859914720058441e-02</internalNodes>
          <leafValues>
            2.8378576040267944e-02 -8.4485936164855957e-01</leafValues></_>
        <_>
          <internalNodes>
            0 -1 182 -4.9469090998172760e-02</internalNodes>
          <leafValues>
            -3.9590582251548767e-01 5.6921642273664474e-02</leafValues></_>
        <_>
          <internalNodes>
            0 -1 848 1.9614872871898115e-04</internalNodes>
          <leafValues>
            7.5636938214302063e-02 -3.1966316699981689e-01</leafValues></_>
        <_>
          <internalNodes>
            0 -1 765 -1.6771233640611172e-03</internalNodes>
          <leafValues>
            2.6020184159278870e-01 -9.5936164259910583e-02</leafValues></_>
        <_>
          <internalNodes>
            0 -1 815 2.2972580045461655e-03</internalNodes>
          <leafValues>
            6.4013794064521790e-02 -3.9922860264778137e-01</leafValues></_>
        <_>
          <internalNodes>
            0 -1 75 1.0742012818809599e-04</internalNodes>
          <leafValues>
            1.1182050406932831e-01 -2.2025163471698761e-01</leafValues></_>
        <_>
          <internalNodes>
            0 -1 90 -2.9103166889399290e-03</internalNodes>
          <leafValues>
            3.3751046657562256e-01 -7.3656648397445679e-02</leafValues></_>
        <_>
          <internalNodes>
            0 -1 339 -1.4337911852635443e-04</internalNodes>
          <leafValues>
            1.4500895142555237e-01 -1.6050364077091217e-01</leafValues></_>
        <_>
          <internalNodes>
            0 -1 179 -7.0001846179366112e-03</internalNodes>
          <leafValues>
            2.4977001547813416e-01 -9.4304136931896210e-02</leafValues></_>
        <_>
          <internalNodes>
            0 -1 113 -7.3251977562904358e-02</internalNodes>
          <leafValues>
            -4.1302427649497986e-01 6.8579778075218201e-02</leafValues></_>
        <_>
          <internalNodes>
            0 -1 452 -5.7539611589163542e-04</internalNodes>
          <leafValues>
            2.5463587045669556e-01 -1.1206679791212082e-01</leafValues></_>
        <_>
          <internalNodes>
            0 -1 8 3.9979834109544754e-03</internalNodes>
          <leafValues>
            -9.9376700818538666e-02 2.4816584587097168e-01</leafValues></_>
        <_>
          <internalNodes>
            0 -1 43 1.8270939472131431e-04</internalNodes>
          <leafValues>
            8.9689388871192932e-02 -2.9001644253730774e-01</leafValues></_>
        <_>
          <internalNodes>
            0 -1 634 -5.0239905249327421e-04</internalNodes>
          <leafValues>
            -1.9949115812778473e-01 1.2984514236450195e-01</leafValues></_>
        <_>
          <internalNodes>
            0 -1 719 2.2324299789033830e-04</internalNodes>
          <leafValues>
            -1.2811318039894104e-01 1.9851925969123840e-01</leafValues></_>
        <_>
          <internalNodes>
            0 -1 699 -3.2232818193733692e-04</internalNodes>
          <leafValues>
            1.9592149555683136e-01 -1.3276214897632599e-01</leafValues></_>
        <_>
          <internalNodes>
            0 -1 601 5.0589937018230557e-04</internalNodes>
          <leafValues>
            -1.1467895656824112e-01 2.2313435375690460e-01</leafValues></_>
        <_>
          <internalNodes>
            0 -1 637 7.1936708991415799e-05</internalNodes>
          <leafValues>
            9.0073257684707642e-02 -2.9310020804405212e-01</leafValues></_>
        <_>
          <internalNodes>
            0 -1 344 -8.5874162614345551e-03</internalNodes>
          <leafValues>
            -5.4363030195236206e-01 5.0368949770927429e-02</leafValues></_>
        <_>
          <internalNodes>
            0 -1 82 -1.0566990822553635e-03</internalNodes>
          <leafValues>
            -4.1273111104965210e-01 5.8389723300933838e-02</leafValues></_>
        <_>
          <internalNodes>
            0 -1 482 -5.8259996585547924e-03</internalNodes>
          <leafValues>
            2.5117328763008118e-01 -9.8883919417858124e-02</leafValues></_>
        <_>
          <internalNodes>
            0 -1 713 2.7691180002875626e-04</internalNodes>
          <leafValues>
            7.0158489048480988e-02 -3.8701125979423523e-01</leafValues></_>
        <_>
          <internalNodes>
            0 -1 265 7.2181713767349720e-04</internalNodes>
          <leafValues>
            -6.2738731503486633e-02 3.8893395662307739e-01</leafValues></_>
        <_>
          <internalNodes>
            0 -1 196 -7.5415981700643897e-04</internalNodes>
          <leafValues>
            -5.5012285709381104e-01 4.8145256936550140e-02</leafValues></_>
        <_>
          <internalNodes>
            0 -1 818 7.7587342821061611e-04</internalNodes>
          <leafValues>
            -1.1816805601119995e-01 2.1397709846496582e-01</leafValues></_>
        <_>
          <internalNodes>
            0 -1 827 -6.7435838282108307e-03</internalNodes>
          <leafValues>
            2.6739844679832458e-01 -9.1908462345600128e-02</leafValues></_>
        <_>
          <internalNodes>
            0 -1 802 -1.0494824498891830e-02</internalNodes>
          <leafValues>
            -5.7847952842712402e-01 4.1452571749687195e-02</leafValues></_>
        <_>
          <internalNodes>
            0 -1 741 -1.0674225632101297e-03</internalNodes>
          <leafValues>
            -5.3773176670074463e-01 3.8421239703893661e-02</leafValues></_>
        <_>
          <internalNodes>
            0 -1 278 9.0422556968405843e-04</internalNodes>
          <leafValues>
            -7.9935632646083832e-02 3.2679459452629089e-01</leafValues></_>
        <_>
          <internalNodes>
            0 -1 170 2.1161794662475586e-02</internalNodes>
          <leafValues>
            -9.1779746115207672e-02 2.4302236735820770e-01</leafValues></_>
        <_>
          <internalNodes>
            0 -1 286 1.1293483898043633e-02</internalNodes>
          <leafValues>
            -7.4913263320922852e-02 2.9676389694213867e-01</leafValues></_>
        <_>
          <internalNodes>
            0 -1 359 6.3768923282623291e-03</internalNodes>
          <leafValues>
            -6.8924002349376678e-02 3.5079163312911987e-01</leafValues></_>
        <_>
          <internalNodes>
            0 -1 285 3.8103871047496796e-02</internalNodes>
          <leafValues>
            -8.5528582334518433e-02 2.9969847202301025e-01</leafValues></_>
        <_>
          <internalNodes>
            0 -1 102 1.7673688125796616e-04</internalNodes>
          <leafValues>
            6.9253645837306976e-02 -3.6869421601295471e-01</leafValues></_>
        <_>
          <internalNodes>
            0 -1 91 -7.7607566490769386e-03</internalNodes>
          <leafValues>
            4.9431413412094116e-01 -5.1627758890390396e-02</leafValues></_>
        <_>
          <internalNodes>
            0 -1 781 2.4411422200500965e-03</internalNodes>
          <leafValues>
            -6.7048177123069763e-02 3.4563359618186951e-01</leafValues></_>
        <_>
          <internalNodes>
            0 -1 544 1.0083694942295551e-03</internalNodes>
          <leafValues>
            9.4314068555831909e-02 -2.6558360457420349e-01</leafValues></_>
        <_>
          <internalNodes>
            0 -1 840 -2.4742970243096352e-02</internalNodes>
          <leafValues>
            3.5643664002418518e-01 -7.6357148587703705e-02</leafValues></_>
        <_>
          <internalNodes>
            0 -1 736 1.9708361942321062e-03</internalNodes>
          <leafValues>
            -8.5855640470981598e-02 2.6030537486076355e-01</leafValues></_>
        <_>
          <internalNodes>
            0 -1 800 -1.6269709449261427e-03</internalNodes>
          <leafValues>
            -3.2396802306175232e-01 9.7653046250343323e-02</leafValues></_></weakClassifiers></_>
    <!-- stage 11 -->
    <_>
      <maxWeakCount>67</maxWeakCount>
      <stageThreshold>-7.9403042793273926e-01</stageThreshold>
      <weakClassifiers>
        <_>
          <internalNodes>
            0 -1 253 4.1688298806548119e-03</internalNodes>
          <leafValues>
            1.7931035161018372e-01 4.8560607433319092e-01</leafValues></_>
        <_>
          <internalNodes>
            0 -1 850 -6.7611709237098694e-02</internalNodes>
          <leafValues>
            3.9883300662040710e-01 -7.5939528644084930e-02</leafValues></_>
        <_>
          <internalNodes>
            0 -1 112 -3.7329297512769699e-02</internalNodes>
          <leafValues>
            -5.8278816938400269e-01 4.0413424372673035e-02</leafValues></_>
        <_>
          <internalNodes>
            0 -1 232 8.8361243251711130e-04</internalNodes>
          <leafValues>
            -1.2473677098751068e-01 2.0219016075134277e-01</leafValues></_>
        <_>
          <internalNodes>
            0 -1 85 -1.8525253981351852e-02</internalNodes>
          <leafValues>
            1.9040475785732269e-01 -1.7125755548477173e-01</leafValues></_>
        <_>
          <internalNodes>
            0 -1 187 9.2537105083465576e-03</internalNodes>
          <leafValues>
            -1.0608971118927002e-01 2.6348355412483215e-01</leafValues></_>
        <_>
          <internalNodes>
            0 -1 439 4.6256259083747864e-03</internalNodes>
          <leafValues>
            -1.5214094519615173e-01 2.3911443352699280e-01</leafValues></_>
        <_>
          <internalNodes>
            0 -1 297 2.1435301750898361e-03</internalNodes>
          <leafValues>
            -1.2539930641651154e-01 2.9866841435432434e-01</leafValues></_>
        <_>
          <internalNodes>
            0 -1 273 -1.2682627420872450e-03</internalNodes>
          <leafValues>
            2.0370763540267944e-01 -1.4911751449108124e-01</leafValues></_>
        <_>
          <internalNodes>
            0 -1 453 -6.6212564706802368e-04</internalNodes>
          <leafValues>
            2.1822530031204224e-01 -1.7276933789253235e-01</leafValues></_>
        <_>
          <internalNodes>
            0 -1 646 -1.8528599757701159e-03</internalNodes>
          <leafValues>
            -6.2596559524536133e-01 5.3179625421762466e-02</leafValues></_>
        <_>
          <internalNodes>
            0 -1 186 -4.7759950160980225e-02</internalNodes>
          <leafValues>
            -5.5677253007888794e-01 4.3133810162544250e-02</leafValues></_>
        <_>
          <internalNodes>
            0 -1 476 3.0640995828434825e-04</internalNodes>
          <leafValues>
            6.2172722071409225e-02 -3.7688055634498596e-01</leafValues></_>
        <_>
          <internalNodes>
            0 -1 551 3.4491682890802622e-04</internalNodes>
          <leafValues>
            -9.4314761459827423e-02 2.4494172632694244e-01</leafValues></_>
        <_>
          <internalNodes>
            0 -1 572 -2.8956104069948196e-03</internalNodes>
          <leafValues>
            -4.6665275096893311e-01 5.6627362966537476e-02</leafValues></_>
        <_>
          <internalNodes>
            0 -1 392 -3.3701937645673752e-03</internalNodes>
          <leafValues>
            2.5067195296287537e-01 -1.2122727930545807e-01</leafValues></_>
        <_>
          <internalNodes>
            0 -1 613 -4.9294307827949524e-03</internalNodes>
          <leafValues>
            2.5300091505050659e-01 -1.2295424193143845e-01</leafValues></_>
        <_>
          <internalNodes>
            0 -1 604 -3.9014039793983102e-04</internalNodes>
          <leafValues>
            3.7925794720649719e-01 -5.4965734481811523e-02</leafValues></_>
        <_>
          <internalNodes>
            0 -1 372 3.7224597763270140e-03</internalNodes>
          <leafValues>
            5.5148754268884659e-02 -4.5803296566009521e-01</leafValues></_>
        <_>
          <internalNodes>
            0 -1 805 -2.3747161030769348e-02</internalNodes>
          <leafValues>
            2.9912397265434265e-01 -8.5942946374416351e-02</leafValues></_>
        <_>
          <internalNodes>
            0 -1 811 1.4055296778678894e-02</internalNodes>
          <leafValues>
            -1.1112222075462341e-01 2.5799351930618286e-01</leafValues></_>
        <_>
          <internalNodes>
            0 -1 836 -1.7153592780232430e-03</internalNodes>
          <leafValues>
            -5.4459005594253540e-01 4.9030013382434845e-02</leafValues></_>
        <_>
          <internalNodes>
            0 -1 783 2.0041315292473882e-04</internalNodes>
          <leafValues>
            -1.2820184230804443e-01 1.9579762220382690e-01</leafValues></_>
        <_>
          <internalNodes>
            0 -1 683 -5.1961792632937431e-03</internalNodes>
          <leafValues>
            3.2852953672409058e-01 -6.6391631960868835e-02</leafValues></_>
        <_>
          <internalNodes>
            0 -1 48 1.6278523206710815e-01</internalNodes>
          <leafValues>
            -4.0090017020702362e-02 5.7319062948226929e-01</leafValues></_>
        <_>
          <internalNodes>
            0 -1 651 -5.1696400623768568e-04</internalNodes>
          <leafValues>
            2.2567681968212128e-01 -1.1368340998888016e-01</leafValues></_>
        <_>
          <internalNodes>
            0 -1 7 1.9541252404451370e-02</internalNodes>
          <leafValues>
            -8.4928914904594421e-02 3.1726601719856262e-01</leafValues></_>
        <_>
          <internalNodes>
            0 -1 561 -1.2380661210045218e-03</internalNodes>
          <leafValues>
            2.0601992309093475e-01 -1.4639365673065186e-01</leafValues></_>
        <_>
          <internalNodes>
            0 -1 407 3.3901950810104609e-03</internalNodes>
          <leafValues>
            7.5330212712287903e-02 -3.2508522272109985e-01</leafValues></_>
        <_>
          <internalNodes>
            0 -1 53 -1.3831214047968388e-02</internalNodes>
          <leafValues>
            2.1238589286804199e-01 -1.1414574086666107e-01</leafValues></_>
        <_>
          <internalNodes>
            0 -1 23 4.0824031457304955e-03</internalNodes>
          <leafValues>
            -1.2127520143985748e-01 2.1266418695449829e-01</leafValues></_>
        <_>
          <internalNodes>
            0 -1 99 -8.8186804205179214e-03</internalNodes>
          <leafValues>
            3.9119440317153931e-01 -5.8397207409143448e-02</leafValues></_>
        <_>
